-1.105551719666, 0.229781091213, -0.131869658828, -0.334672063589, -0.946410357952, -0.312297880650, 0.567411303520, 0.411406427622, -0.394693642855, -0.345020920038, 1.034595966339, -0.167548686266, 0.250850796700, 0.580726861954, -0.049286417663, -0.732724249363, 0.236571788788, -0.509135544300, 0.005258199293, 0.001374047599, 0.000420753640, 0.671257317066, 0.441040545702, 0.172918066382, -0.894180119038, -0.360039383173, 0.411806583405, -0.414220154285, -0.925195991993, 0.497830688953, -0.303572982550, 0.059146273881, -0.800315737724, 0.580847799778, 0.519950151443, -0.639771640301, 0.265821754932, -0.128331959248, -0.628492653370, 0.656941950321, 0.471980631351, 0.803273141384, -0.734498322010, -0.530938625336, -0.432825207710, 0.519891321659, -0.271972060204, -0.619992315769, 0.185535073280, 0.790854513645, -0.549274027348, 0.513773441315, -0.738104224205, 0.533259510994, 0.642749130726, -0.705598354340, -0.296658217907, -0.260974019766, 0.277806550264, -0.856889069080, -0.921192169189, 0.359100788832, 0.046658389270, -0.360266387463, 0.015488096513, 0.743145644665, -0.447442859411, -0.145370244980, 0.628628134727, 0.109484754503, 0.932301580906, -0.496893465519, -0.755917549133, 0.533885776997, -0.401505559683, 0.389766454697, 0.947781503201, 0.382375061512, -0.154730439186, 0.569034695625, -0.718627095222, -0.804712116718, 0.606549918652, -0.346603780985, -0.719427347183, -0.016058567911, -0.184165105224, 0.001342949807, -0.000123961872, -0.000134015747, -0.438455730677, 1.149612426758, 0.533651173115, -0.104605682194, -0.161035701632, 0.824375987053, 