-0.018703920767, 0.464152961969, -0.177119195461, -0.558768510818, -0.299930900335, 0.395797789097, -1.022844552994, -0.117727003992, 0.091014675796, -0.092019133270, -0.298157900572, 0.221251770854, 0.970130622387, 0.279406577349, -0.766570389271, 0.456300288439, -0.123233512044, -0.471187174320, -0.550996422768, 0.364640831947, 0.067944809794, 1.292388796806, -0.449548512697, -0.145767867565, -0.888383805752, -0.224538609385, 0.247767329216, 0.211846351624, 0.085248544812, 0.135408237576, -0.096314549446, 0.451419293880, 0.423279523849, -0.521419286728, -0.700566947460, -0.010678772815, -0.100009560585, 0.313441634178, -0.562505722046, -0.378691971302, -0.456427484751, -0.378988564014, -0.217960566282, -0.213313773274, -0.882189393044, -0.111192479730, -1.039458870888, 0.324494153261, 0.024727376178, -0.738529264927, 0.098455592990, -0.700669765472, -0.130171835423, -0.319778501987, -0.022738561034, -0.173917755485, -0.728769183159, 0.259534090757, -1.115148186684, -0.397543519735, 0.112500488758, -0.933932721615, 0.119972541928, 0.700050294399, 0.131143003702, -0.137158051133, -0.113011769950, 0.266573190689, -0.552832424641, 0.125240758061, -0.073915369809, -1.445689320564, -0.049842875451, -0.327091097832, 0.274810582399, -0.585562944412, -0.866349458694, -0.198187053204, -0.555220484734, 0.367346584797, 0.042637061328, -0.012233393267, 0.499958544970, 0.962507009506, 0.664648950100, -0.165939256549, 0.540401816368, 0.342964023352, -0.012312786654, -0.660905063152, -0.477502107620, -0.945966660976, 0.109064973891, -0.609309673309, 0.160627961159, -0.446368098259, 0.152329176664, -0.008060907945, 0.183858558536, 0.012688469142, 0.622066199780, 0.013964654878, -1.038740277290, 0.134501293302, 0.377962648869, 0.754946053028, -0.221697762609, -0.441661089659, 0.399008363485, 0.005498174112, 0.023943232372, -0.632166862488, -0.090903118253, 0.351095795631, -0.434729218483, 1.214552879333, 0.213703900576, 0.031726699322, -0.127493903041, 0.934881806374, -0.982713043690, -0.159197211266, -1.288322210312, -0.222060158849, -0.073854841292, 0.114400483668, -0.672514200211, -0.438580036163, -0.083227083087, -1.067375540733, 0.953616619110, 0.462532311678, -1.426944136620, -0.552799046040, -0.656576037407, -0.377238094807, 0.060290247202, 0.509638488293, -0.386082589626, -0.006770339794, 1.068400621414, -0.365711063147, -0.561400651932, -0.622356116772, -0.233597159386, -0.213695988059, 0.513549387455, 0.173028960824, 0.575766146183, -0.106071442366, -0.165838390589, 0.160363927484, -1.341192960739, -0.135872781277, 0.106115892529, -0.658717811108, -0.428859293461, 0.362806081772, -1.018671512604, -0.564445972443, -0.282272219658, 0.179113298655, -0.597089231014, -0.743977189064, 0.630321800709, -0.114641986787, -1.156986713409, -0.848418295383, -0.187064185739, -0.464186191559, 0.024333816022, -0.536641299725, -0.498076140881, 0.607169032097, 0.048203572631, 0.025809025392, 0.213398963213, 0.196302682161, -0.307075411081, 0.405240893364, -0.267908722162, 0.157007649541, 0.367519944906, -1.135076761246, 0.467231154442, -0.299357920885, 0.222923070192, 0.442129820585, 0.187763467431, -0.023855118081, 0.246614098549, -0.058148883283, -0.134932771325, -0.635736823082, -0.621210932732, 0.644060194492, -0.876002013683, -0.532295644283, -1.309718370438, 1.382956862450, 0.025627730414, -0.418168842793, -0.285105437040, 0.225607901812, 0.438047796488, -0.091582797468, 0.034326918423, 0.811005830765, 0.669419586658, -0.923986732960, -0.135229229927, 0.946065545082, -0.994536280632, 0.144265204668, -0.058876600116, 0.097111307085, 0.530043005943, 0.235660165548, -0.562670707703, -0.354537725449, -0.438969314098, -0.548699498177, 0.572518944740, -0.236826732755, -0.030477736145, -0.777244925499, 0.093508601189, 1.153729557991, 0.204717203975, -0.670310556889, 0.360819607973, -0.200589701533, -0.342122316360, 0.279717952013, -0.456326752901, -0.013264037669, 1.053885340691, -0.473805725574, 0.142564624548, -0.482439309359, 0.027184430510, 0.058777488768, 0.056856509298, 0.155530005693, -0.545491755009, -0.120589524508, 0.016747096553, 0.572486341000, -1.256539106369, -0.349011898041, -0.842496871948, 0.304157108068, 0.111702471972, -0.195291176438, -0.705818891525, 0.381430357695, -0.296457171440, -0.135550782084, 0.210025787354, 0.825863778591, 0.202990755439, 0.294834613800, -0.483113288879, 0.733819007874, 0.632758796215, -0.683822214603, -0.117496706545, 0.201854676008, 0.042592685670, 0.283668339252, -0.114196509123, 0.508499801159, 0.243332833052, 0.011841975152, -0.657171308994, -0.460826426744, 0.061386283487, 0.549814164639, -0.029117936268, 0.430246829987, -0.800873756409, -1.019533753395, -0.173323184252, 0.079002074897, 0.017684724182, -0.092589937150, -0.910252153873, 0.529048681259, -0.419149726629, -0.257848829031, -0.563973903656, -0.205715939403, -0.431076198816, -0.146111860871, 0.008149659261, 0.609888851643, -0.541277766228, -0.602233290672, 0.254731744528, -0.945184051991, 0.423485964537, 0.625611782074, 0.332109719515, 0.400513142347, -0.656377196312, 0.268275976181, 0.073137387633, -0.042359128594, 0.401987940073, -0.182197839022, -0.233120709658, -0.892400860786, 0.488333404064, 0.012176093645, -0.380775690079, 0.347306579351, -0.017031723633, -0.530943214893, 0.002635503188, -0.108801290393, 0.584926784039, -0.119110122323, 0.433097451925, -0.637365758419, 0.042257305235, 0.892040908337, 0.616380155087, -0.124713815749, 0.094473794103, -0.287479043007, -0.411821335554, -0.192861646414, -0.019807701930, -0.474362969398, 0.491955906153, 0.511451840401, 0.316384136677, -0.577735900879, -0.747872173786, 0.291853278875, -0.273558050394, 0.610508143902, -0.637243688107, 0.548166573048, -0.870209574699, 0.197876736522, -0.631514430046, -0.314955413342, -0.339513540268, -0.372321277857, 0.121872641146, 0.007654279470, 0.153658062220, -0.088232174516, 0.012239640579, -0.027054224163, -0.015533064492, 0.622701883316, 0.318268090487, 0.655731260777, 0.302738159895, -0.788446724415, 0.308597683907, -0.165913835168, 0.211125776172, 0.396015912294, 0.161195531487, 0.545634269714, 0.428686559200, -0.772620499134, 0.325800895691, 0.434105426073, -0.007285506930, 0.885878562927, 0.398984283209, -0.041755240411, -0.321498423815, -0.167053401470, -0.098027475178, -0.419150948524, 0.150589749217, -0.504789173603, 0.487163305283, -0.059346735477, 0.134006157517, 0.066328436136, 0.050699282438, 0.895451009274, 0.005464336835, 0.420347630978, 0.211145520210, -0.333523720503, -0.464526861906, -0.633428215981, -0.123109079897, -0.554184377193, -0.666344463825, 0.118573151529, -0.852457940578, 0.224151045084, -1.086239933968, -0.301469773054, 0.589919030666, 0.418499231339, -0.719600677490, -0.271208643913, 0.137625604868, -0.243491649628, 0.887191176414, -0.186167314649, -0.075205989182, -0.735090911388, 0.079224787652, -0.143540009856, -0.159657120705, 0.017164811492, 0.353303343058, 0.311777591705, 0.111344516277, -0.352689474821, 0.386364161968, 0.132802426815, 0.165418818593, -0.494797438383, 0.214669123292, -0.765541493893, 0.145244896412, 0.336177438498, -0.259771168232, -0.454525738955, -0.345896452665, 0.304614335299, -0.037025175989, -0.216336920857, -0.235209360719, -0.743317246437, -0.743414700031, -0.271871417761, 0.230812594295, 0.557844400406, 0.072220236063, 0.465291380882, 0.288457006216, -1.114724397659, -0.532569289207, -0.112323775887, 0.449037939310, 0.193218305707, -0.156876042485, 0.316679716110, 0.298835813999, 0.805811107159, -0.555520772934, -0.706400513649, -1.248965024948, -0.859688222408, 0.134592711926, 0.220022469759, 0.054933596402, -0.098690323532, 0.292960405350, 0.116691574454, -0.327797859907, -0.762295246124, 0.129420652986, 0.107430547476, -0.475804537535, -1.349622488022, -0.472354531288, 0.182346358895, -0.560406386852, 0.343193858862, -0.745920717716, -0.826070785522, -0.157832637429, 0.141256079078, 0.026062158868, -0.243378043175, -0.393281102180, -0.533529341221, 0.520180106163, -0.596849560738, 0.033297929913, 0.242353022099, 0.048386681825, 0.204862788320, -0.434935450554, -0.638787925243, 0.761278986931, -0.299090147018, 0.279939264059, -0.482019901276, -0.977640271187, -0.445269703865, 0.352211296558, 1.058788180351, -0.968181848526, -0.111403189600, -0.997495651245, -0.929434955120, -1.032624483109, 0.094018884003, -0.042468916625, -1.501886963844, 1.242186903954, -0.935418307781, -0.219536244869, 0.197150155902, -0.011115261354, 0.071158945560, 0.295842468739, 0.834092140198, -0.309242963791, -0.320770710707, -0.470602631569, -0.342657893896, -0.205872491002, -0.340202152729, 0.773708701134, 0.619081437588, -0.626052439213, -0.767505586147, 0.819374084473, -0.343124210835, 0.071675240993, -0.077492713928, 0.362054228783, 0.602813124657, 0.416063845158, -0.121300853789, 0.655154824257, -0.293975979090, 0.186484947801, -0.623542428017, -0.865335762501, -1.119672179222, 1.095707535744, 0.250651866198, -0.421333998442, 0.345090538263, -0.268113762140, -0.860615074635, 0.290053635836, -0.006587503944, -0.368355065584, 0.212142184377, -0.497475415468, -0.814412653446, -0.587470889091, -0.350056260824, 0.344829410315, -0.057075832039, -0.510771989822, -0.417097359896, -0.498023271561, -0.645925402641, 0.478121608496, 0.397338360548, 0.238158285618, 0.020006706938, -0.424041897058, 0.418895274401, 0.156629696488, -0.100404202938, 0.350277662277, -0.341327935457, 0.363232523203, -0.727198004723, -0.025878183544, 0.187885686755, -0.105937637389, 0.535230040550, 0.372543275356, -0.637897074223, -0.002413097071, 0.108759798110, -0.215166717768, -0.099753499031, 0.430769890547, 0.260401755571, -0.552515864372, 0.207213938236, 0.728382408619, -0.528830051422, 0.077072627842, -0.247756153345, -0.590257167816, -0.256480962038, 0.232540011406, 0.677277624607, -0.381809592247, -0.172449678183, 0.361031353474, -0.252916246653, 0.436634272337, -0.283252447844, 0.836293697357, 0.602696061134, 0.184244617820, 0.645509362221, -0.821204364300, -0.032280400395, 0.445028722286, 0.198268026114, 0.017101317644, -0.284701049328, -0.808943569660, -0.384751945734, 0.468125998974, 0.088420361280, -0.026291120797, 0.168867588043, -0.650440871716, -0.099114485085, 0.667031407356, 0.758015751839, -0.667400777340, 0.912597239017, -0.296780377626, 0.583007991314, 0.372591555119, -0.295356959105, -0.890686094761, -0.132310837507, 0.753730535507, 0.057622034103, 0.157835006714, 0.711476087570, 0.187850669026, 0.952465355396, -0.059303365648, 0.248683318496, 0.025480786338, -0.269340336323, 0.640739917755, -0.103556700051, -0.104843385518, 0.147325471044, 0.554859876633, -0.827470242977, -0.079370915890, -0.708492636681, 0.035137243569, -0.028259694576, -0.233251661062, -0.943392515182, 0.752834498882, 0.227570712566, -0.089859791100, 0.188262969255, 0.231689706445, -0.161472126842, 1.222036004066, -0.218513190746, 0.483325660229, 0.153070792556, -1.102036595345, 0.023947179317, -0.114506013691, -0.203649938107, -0.112306684256, 0.428015261889, 0.473537981510, 0.379061996937, -0.801205992699, -0.723663568497, -0.336436629295, -0.214775815606, -0.324487477541, 0.460743337870, 0.232046052814, 0.275245964527, -0.435940653086, -1.059135437012, -0.280595332384, 0.482019573450, -1.253041505814, 0.001738664927, 0.010517522693, 0.546481370926, 0.154255539179, -1.065325498581, -1.325317502022, -0.643044114113, -0.059659224004, -0.782938241959, -0.011413919739, 0.033651910722, -0.308412820101, -0.339187800884, 0.587885618210, -0.273391574621, -0.515861392021, 0.384108781815, -0.180692374706, 0.223937034607, -0.960628807545, -0.143405765295, -0.132796749473, 0.197515040636, 0.144033968449, -0.074711948633, -0.785230636597, -0.267776012421, 0.042556930333, -0.387150198221, -0.116397634149, -0.173389211297, -0.040062900633, 0.268300563097, -0.046725478023, -0.574311375618, -0.367719262838, -0.802742898464, 0.056605398655, 0.557315468788, 0.272973626852, -0.463898599148, -0.784042537212, 0.577142298222, -0.338988721371, -0.363371729851, 0.393309265375, 0.418750971556, -0.312185108662, -0.200811192393, 0.281777054071, 0.013013662770, 0.183601200581, 0.355199545622, -1.143845558167, -0.571454286575, 0.650330245495, 0.449035435915, 0.152959406376, 0.650730550289, 0.108904205263, -0.292910248041, 0.092862844467, -1.200360655785, -0.104659736156, -0.355843484402, -0.231472238898, 0.398943454027, 0.786095201969, -0.473654597998, 1.054668545723, 0.137071251869, -0.779262125492, -0.929993450642, -0.096887677908, -0.298991769552, -0.661195039749, 0.311705797911, -0.917013943195, -1.242223381996, -1.408884644508, -0.158040136099, -0.439251661301, -0.935830891132, 0.838748931885, 0.029402704909, 0.134359523654, -0.223352417350, -0.707026779652, 0.763390123844, 0.418621599674, 0.618613064289, -0.150188937783, -0.326804995537, -0.042363502085, 0.912780821323, 0.159265100956, 0.396152853966, -0.553538918495, 0.128277003765, 0.024418715388, -0.295417904854, -0.390220284462, 0.042911496013, 0.419444143772, -0.384292542934, 0.934060335159, 0.035884629935, -0.952979326248, -0.053202919662, -0.088936582208, 0.382259875536, -0.718176126480, -1.114616036415, 0.310467451811, 0.189642280340, -0.732710003853, 0.179741591215, -1.442378401756, 0.235144525766, -0.439067363739, 0.831678509712, -0.259359061718, 0.365124553442, 0.242772400379, 0.505457758904, -0.472796320915, 0.010314260609, 0.369595468044, -0.320926994085, 0.177785173059, -0.172678649426, 0.455546915531, -0.476113468409, -0.717192471027, 0.680566668510, -0.643463015556, -0.357647478580, -0.754995107651, -0.468513309956, 0.748981893063, 0.375470250845, -0.852321743965, 0.173321157694, -0.719553530216, 0.300911635160, 0.330215454102, -0.707115292549, 0.681574761868, 0.594820857048, -0.077581293881, -0.072381824255, 0.041208796203, 0.251163303852, -0.169410660863, 0.203247949481, 0.430311918259, 0.200258150697, 0.233180388808, -0.027204168960, -0.164555639029, -0.015694729984, -0.720322728157, -0.376270115376, 0.354059994221, 0.180389091372, -0.174136191607, 0.898956298828, 1.261291027069, -0.468273162842, 0.216562688351, -0.006304584444, 0.559020996094, -0.036611363292, -0.206871196628, -0.309167444706, -0.187554076314, 0.469745099545, 0.015140270814, 0.580187678337, -1.018770456314, -0.287025749683, 0.076131172478, 0.089274853468, 0.637359976768, -0.080863021314, -0.876051366329, 0.098408982158, 0.036144401878, 0.501668691635, -0.253032565117, 0.684958279133, 0.118238806725, -0.019315484911, 0.006443858612, -0.462984710932, 0.125200197101, 0.533492624760, 0.245492622256, 0.606067001820, 0.367975950241, 0.320002675056, 0.696494936943, 0.442073822021, -0.729748070240, 0.426539391279, -0.647911906242, -0.515446543694, 0.411677002907, 0.654175102711, -0.210708126426, -0.099219247699, 1.138793230057, -0.819999694824, -0.129469454288, -0.310202956200, -0.189040318131, 0.186446473002, 0.176981389523, 0.256211102009, -0.291661649942, 0.258193165064, -0.349135667086, -0.785306274891, -0.296440482140, -0.177178174257, -0.215309232473, 0.070719778538, -0.292427390814, -0.370398610830, 0.176879867911, -0.737998187542, -0.035944532603, -0.066178478301, -0.032811410725, 0.351623803377, -0.577181935310, 0.204407781363, -0.680377185345, 0.067398823798, 0.281507074833, 0.057374201715, -0.454955875874, -0.571549117565, -0.334747970104, 0.466044783592, -0.017880497500, 0.466956287622, 0.440658450127, -0.261886030436, -0.207200929523, -0.400083720684, -0.690230846405, -1.157215595245, 0.936591565609, 0.266169160604, -1.233602762222, -0.659746408463, -0.445106387138, -0.398058414459, 0.004712305497, 0.518999338150, -0.161980301142, 0.395183235407, 1.083711385727, -0.887326776981, -0.067238174379, -0.272789537907, -0.334041863680, -0.336120605469, 0.664019227028, -0.217157423496, 0.263491153717, 0.214826643467, -0.245387285948, 0.389591872692, -1.477693915367, 0.158545017242, 0.487420946360, -0.700199604034, -0.251707613468, 0.399853646755, -1.052392363548, -0.323290079832, 0.284927845001, 0.106493517756, -0.094027042389, 0.422683268785, -0.043853927404, 0.451044499874, -0.026850907132, 1.286777257919, -0.132490783930, 0.718383193016, -0.293038159609, -0.480625122786, 0.191755309701, 0.363300174475, 0.163203030825, 0.403921514750, 0.585877180099, -0.221927508712, -0.241607189178, 0.586355745792, -0.434507936239, 0.196818292141, 0.241692289710, 0.198612362146, -0.816306293011, 0.585761845112, -0.615876555443, 0.094209305942, -0.466382890940, -0.005438138265, -0.141025274992, 0.048534445465, 0.430232614279, 0.218639418483, -0.431540846825, 0.473431408405, 0.323622971773, -0.340006411076, -0.174773856997, 0.081683166325, 0.642421305180, -0.165787085891, -0.307427704334, 0.484703391790, -0.500095844269, -0.235795363784, -0.142542123795, -0.276370942593, 0.717979550362, 0.341580688953, -0.314590960741, -0.085688367486, -0.658054649830, -0.318500220776, 0.486342191696, 0.210770159960, 0.569760680199, 0.179504349828, 0.187129259109, -0.568442940712, -0.442503333092, -0.338754475117, 0.655913949013, 0.252966970205, 