-0.092718616128, -0.342016547918, -0.363228261471, 0.222243711352, 0.019383231178, -0.111747197807, -0.031056374311, -0.040300171822, 0.175311699510, 0.054649602622, 0.147817999125, -0.061168387532, 0.429593443871, -0.390790998936, 0.018365761265, -0.155943050981, 0.103202439845, -0.477847248316, -0.280567526817, -0.567724287510, 0.157260164618, 0.284873336554, -0.158051788807, 0.005360186566, -0.682894825935, 0.281093358994, -0.022095840424, 0.352041751146, 0.274333238602, 0.069903805852, 0.140321120620, 0.085456222296, -0.151531443000, -0.217633798718, -0.120085708797, 0.100458912551, 0.070490643382, 0.080941386521, 0.049706444144, -0.559627413750, -0.117114059627, 0.163186252117, 0.202084496617, 0.078044727445, -0.038192875683, 0.004011152778, 0.370711743832, 0.217833355069, -0.108262650669, -0.293478280306, 0.368798494339, 0.233477503061, -0.530537188053, 0.067912407219, 0.181884244084, 0.136660188437, -0.072218962014, 0.177285388112, -0.267433166504, 0.066805958748, 0.104456074536, -0.156056910753, -0.699617922306, -0.330004751682, 0.014803158119, -0.122711494565, -0.015733294189, -0.002285011346, 0.162294358015, -0.054266277701, -0.045303728431, 0.003834617790, -0.107834905386, 0.048581946641, -0.050898756832, 0.059401802719, 0.110862292349, 0.015345857479, 0.088848449290, 0.018960921094, 0.013075967319, -0.094394572079, 0.115048706532, -0.231824904680, -0.027577729896, 0.001874435693, 0.133938282728, -0.066709995270, -0.020800709724, 0.086221739650, -0.006936639082, 0.015206258744, 0.060781195760, -0.091041915119, -0.159448280931, -0.035279080272, 0.014352971688, 0.643091440201, -0.212296590209, 0.374763578176, 0.299171358347, -0.060016345233, 0.197210341692, -0.477738022804, -0.012232342735, -0.011987619102, -0.438442617655, -0.092305354774, 0.022263649851, -0.415201425552, -0.068338274956, -0.502504348755, -0.091562494636, -0.119001284242, -0.421197891235, 0.145356416702, -0.252023458481, 0.553445756435, -0.534437000751, -0.633498191833, 0.598431885242, 0.012413080782, -0.269487887621, -0.076864711940, -0.026664160192, -0.125708550215, 0.231687083840, 0.236024126410, 0.020373601466, -0.636946678162, 0.200138956308, 0.029021840543, 0.110450349748, 0.195214614272, -0.691369295120, -0.271535426378, -0.129785120487, -0.352260231972, 0.013738203794, 0.137702554464, -0.275364160538, -0.187009587884, 0.196787387133, -0.816846966743, 0.081184610724, 0.097409076989, -0.046969480813, 0.420851439238, -0.596192479134, 0.300546169281, -0.324295997620, -0.700900614262, -0.311830431223, -0.067027293146, 0.231319218874, 0.860079467297, -0.461644917727, -0.144238784909, 0.403611630201, -0.176794305444, 0.067682318389, -0.012263920158, -0.137665376067, 0.049788620323, 0.149388402700, -0.051171202213, -0.145112082362, -0.099768072367, -0.068478167057, 0.134185448289, -0.049388866872, -0.009267891757, 0.278419226408, -0.039906665683, 0.142756015062, 0.065313734114, -0.002232579282, -0.083359673619, 0.087494112551, 0.055191248655, -0.053844299167, -0.008037704043, 0.039430778474, -0.202430397272, 0.057992894202, 0.048158653080, -0.285705924034, 0.031688120216, -0.025529341772, -0.172992199659, -0.144022867084, 0.031609687954, 0.051157530397, -0.011938951910, 0.002752252622, 0.072207212448, 0.169245436788, -0.017613973469, -0.001564965933, 0.101882755756, -0.035987775773, 0.099486343563, -0.116600081325, -0.012997864746, -0.036899827421, -0.045065887272, -0.029111033306, 0.008887382224, -0.050516288728, -0.145129457116, 0.070828802884, -0.114937104285, -0.027828915045, 0.092212855816, 0.159822389483, -0.109922796488, 0.109695933759, 0.158311575651, -0.039234705269, 0.023464038968, -0.053448382765, -0.171176731586, -0.106319598854, -0.140038058162, -0.620902717113, 0.070060901344, 0.232397317886, 0.438964426517, 0.094443581998, -0.092097572982, 0.101563289762, -0.008656286635, 0.253721982241, -0.050024516881, -0.348518639803, 0.035782761872, -0.394689649343, -0.208488494158, 0.337458878756, 0.264301300049, -0.062000311911, 0.129950180650, 0.022165521979, -0.372776538134, 0.091270372272, -0.028601741418, 0.052313946187, 0.074877031147, 0.353366672993, -0.077096015215, -0.540636062622, 0.088791787624, -0.011800738052, -0.217814981937, -0.068844847381, 0.070466734469, -0.046963989735, 0.023537278175, 0.038838442415, -0.031816031784, 0.146782234311, -0.011619852856, 0.044511649758, 0.029749937356, -0.141362726688, 0.066819749773, -0.089290335774, 0.045899678022, 0.039396088570, -0.117134071887, 0.023228682578, 0.024880424142, -0.042060494423, -0.099685050547, 0.094454005361, -0.245256483555, 0.052357204258, -0.027071965858, 0.032177258283, -0.152327150106, -0.006858921610, 0.068537369370, 0.096247009933, -0.004910850897, 0.059018004686, -0.023346761242, -0.108941048384, 0.041050955653, 0.186388969421, 0.015026514418, -0.167340919375, -0.146406576037, 0.215966492891, -0.094352319837, 0.049443088472, 0.043032977730, 0.191941708326, 0.084678195417, -0.372729450464, -0.087660193443, 0.342755824327, 0.228028073907, 0.160075902939, 0.081031933427, -0.083121061325, 0.108859479427, -0.018967773765, -0.090713188052, -0.191773742437, -0.083728097379, 0.111975155771, -0.029859844595, 0.191236361861, 0.081053555012, -0.110019974411, -0.136144414544, -0.127272456884, -0.287154376507, -0.118432946503, -0.228850394487, -0.037040300667, -0.259577989578, -0.284614354372, 0.169225633144, -0.219314768910, 0.135448634624, -0.372454315424, 0.318147361279, 0.171142622828, 0.391627728939, -0.194986343384, -0.300152778625, -0.031328015029, 0.247603714466, -0.011409601197, 0.345702201128, 0.179803818464, 0.395026236773, 0.001151678502, 0.279400587082, -0.049297776073, 0.372852653265, -0.196247085929, 0.177999466658, 0.195958599448, 0.441485941410, 0.333866328001, 0.152287796140, 0.362628102303, -0.085488498211, -0.283011615276, 0.360470890999, 0.018385322765, -0.059864841402, 0.045886702836, -0.102568887174, 0.064119309187, 0.001085617230, -0.007187799085, 0.033569142222, -0.032625775784, -0.057906873524, -0.016702599823, -0.024386409670, -0.092295825481, 0.127792567015, 0.071105614305, -0.097073182464, 0.110393770039, -0.152593791485, -0.104294180870, -0.105764269829, -0.078199818730, 0.126871377230, 0.000727390579, 0.010130641051, -0.013461931609, 0.072523482144, -0.024956854060, 0.154778644443, 0.055504288524, -0.224537789822, 0.255189567804, -0.125393643975, -0.079183816910, 0.259557902813, -0.224264487624, -0.179215431213, -0.012885329314, -0.157045170665, 0.128058120608, 0.039823349565, -0.090361788869, -0.064223870635, -0.136742129922, -0.299984157085, -0.353952556849, 0.123571731150, 0.086245596409, -0.124116472900, 0.177994966507, -0.201220154762, 0.369958996773, -0.262343734503, -0.079521879554, -0.180916622281, 0.174311548471, -0.056552048773, 0.311510056257, 0.080238677561, -0.413204282522, 0.293168157339, 0.183776736259, -0.124757081270, -0.158840626478, 0.032452519983, 0.173563167453, 0.160879492760, -0.168826267123, 0.153369128704, 0.117024056613, -0.151456996799, 0.115380115807, 0.286275357008, 0.021551139653, 0.113709025085, -0.040939573199, -0.095910154283, 0.223624497652, -0.044104766101, -0.108372196555, 0.075258009136, 0.075300775468, -0.100041560829, 0.133456870914, -0.414250493050, -0.327185124159, -0.125330671668, -0.384701609612, 0.225551947951, -0.369304835796, 0.043280757964, -0.058552119881, -0.134041145444, -0.138420656323, -0.282906323671, -0.153354734182, -0.077954620123, 0.249107629061, 0.268759489059, 0.506687104702, 0.665238857269, -0.091291829944, -0.571672558784, -0.243560925126, 0.199951827526, -0.764732062817, -0.311805158854, 0.310724347830, 0.101347610354, 0.606105506420, 0.652820348740, -0.148660033941, -0.244357988238, -0.142550304532, -0.383555293083, 0.295788794756, 0.113075859845, -0.582914650440, -0.377441078424, 0.349819183350, -0.506058394909, -0.376355141401, -0.410863846540, -0.053915135562, -0.612567543983, -0.194395005703, 0.031485669315, -0.084502182901, 0.247464582324, 0.248847305775, 0.127814590931, -0.532157301903, 0.136317625642, 0.221364110708, -0.524661004543, 0.170218169689, -0.124003104866, 0.140550211072, -0.187570229173, -0.039180781692, -0.450173437595, -0.266193807125, -0.421548932791, 0.208437949419, 0.231160789728, 0.411812454462, -0.061156496406, 0.614791512489, -0.321941971779, 0.167559191585, 0.222645506263, -0.231521084905, 0.051816329360, 0.094489842653, 0.247322633862, -0.227853789926, 0.245551198721, -0.002219661605, -0.312832385302, 0.224830687046, -0.090074673295, 0.675012290478, 1.058696389198, -0.010816686787, 0.154159009457, 0.219573214650, -0.147427245975, -0.423566788435, 0.220340996981, 0.056943994015, 0.041045330465, -0.542979776859, -0.075912490487, -1.435087084770, 0.231891542673, -0.631168127060, -0.075316451490, 0.270044595003, -0.093049131334, -0.378597795963, -0.800293684006, -1.039149403572, -0.301333755255, -0.063724033535, -0.086022399366, -0.773785889149, -0.234328851104, -0.641834437847, -1.052455544472, -0.113585792482, 0.197133496404, 0.882381260395, 0.155304849148, -0.092042073607, 0.013987578452, 0.023792378604, 0.137615934014, 0.248730883002, -0.131755173206, -0.173610284925, 0.057916961610, -0.159560412169, -0.018251759931, -0.037540160120, -0.051853325218, -0.044154424220, -0.105868659914, 0.041458498687, 0.027996219695, 0.072282277048, -0.102975234389, 0.112250939012, -0.102953255177, -0.003262732876, 0.087552025914, 0.013010943308, -0.246377646923, 0.145180776715, 0.117122106254, -0.216025307775, 0.136285021901, 0.048121072352, -0.291563123465, -0.321996748447, -0.059777092189, -0.303652375937, -0.399025559425, 0.426863342524, 0.204535320401, 0.084652714431, -0.001800382743, -0.002905620029, -0.450702071190, 0.490019857883, -0.377081394196, -0.539277315140, -0.044669859111, 0.566901803017, -0.237001195550, 0.405322998762, -0.360096037388, 0.261058211327, 0.197889134288, -0.646453738213, -0.023022636771, -0.303680300713, -0.104285202920, -0.063696891069, -0.225459039211, 0.272906213999, -0.077279597521, 0.284593373537, -0.131276175380, -0.091684065759, 0.025097876787, -0.167373269796, -0.040396403521, 0.099090658128, 0.020048325881, 0.075211085379, -0.087007239461, 0.097526371479, -0.176217034459, 0.106264062226, -0.010207780637, 0.071875281632, 0.032714176923, -0.207246407866, -0.094376668334, 0.459861606359, 0.067885994911, 0.055482823402, -0.006910214201, 0.069570943713, -0.031788568944, 0.073309600353, -0.452773213387, -0.039031770080, -0.199142217636, -0.003976922948, -0.114950947464, 0.021531034261, 0.131828665733, 0.016969511285, -0.162407740951, 0.013485400006, -0.047782484442, -0.047686256468, -0.172543615103, 0.004788866267, 0.049527693540, -0.025751011446, -0.045264374465, 0.163457036018, -0.067060381174, -0.081687308848, 0.070538908243, -0.155010804534, 0.093954227865, -0.126190721989, 0.017431301996, 0.091255925596, 0.092709071934, 0.043831542134, 0.030395977199, -0.061244051903, -0.031716518104, 0.089375145733, -0.053486589342, -0.044534381479, 0.026437409222, 0.117094770074, -0.043416965753, 0.067530483007, 0.063918128610, -0.073460057378, -0.041269160807, -0.025983644649, -0.173714205623, -0.098832711577, -0.091867864132, -0.270063042641, -0.094177335501, 0.213866591454, 0.215905711055, 1.012304067612, 0.059419631958, 0.021598681808, -0.598346889019, -0.000740507501, -0.177259340882, 0.421542376280, 0.057357404381, 0.252292513847, 0.096428819001, 0.273998022079, -0.101877793670, -0.032416354865, -0.070896148682, -0.315584301949, -0.146087154746, 0.058658614755, 0.075383715332, -0.184152036905, -0.307699054480, -0.371821433306, 0.049799133092, -0.507334113121, 0.131964400411, 0.216881990433, 0.894380748272, -0.075841873884, 0.035749807954, 0.028316026554, 0.093006506562, 0.057352315634, 0.000158594325, 0.189659252763, -0.144392564893, -0.117966085672, 0.029255343601, 0.119158051908, 0.245046794415, -0.090032771230, -0.059964653105, 0.202408835292, -0.123504482210, 0.034330822527, -0.028052862734, -0.003118399531, -0.145860806108, -0.090750269592, -0.112778648734, -0.094012625515, 0.042901348323, -0.060299195349, -0.033663924783, -0.090201191604, 0.145529314876, 0.114700332284, -0.092164278030, -0.030861182138, -0.247212573886, -0.262247055769, -0.002385657979, -0.409442394972, -0.519740700722, 0.208899080753, 0.073521599174, -0.208312183619, -0.322083055973, 0.229377239943, -0.056263383478, 0.330103009939, -0.270616501570, 0.065368622541, -0.036882683635, 0.318233519793, 0.617301940918, -0.111503630877, -0.160233855247, 0.266984492540, -0.040453191847, -0.113724753261, 0.144400849938, 0.176880985498, 0.315205425024, 0.129549697042, 0.020284613594, -0.252021789551, -0.062243781984, 0.070666864514, 0.330575466156, 0.080042831600, 0.128551796079, -0.129217222333, -0.419383674860, -0.035355608910, -0.360294938087, -0.098654553294, -0.414104640484, -0.089755959809, -0.137081414461, -0.035253211856, 0.085069455206, -0.124337419868, -0.210780262947, -0.112744741142, 0.207910984755, -0.736748933792, 0.371711254120, -0.264418393373, 0.184394210577, -0.183750599623, 0.044967982918, -0.068428322673, -0.247444897890, -0.693779408932, -0.286399573088, 0.277802526951, -0.894364476204, -0.389965027571, -0.205961182714, -0.080485358834, -0.601288795471, 0.223297998309, -0.260458856821, -0.226337268949, -0.057144455612, 0.019532350823, 0.034748874605, -0.062859125435, 0.004904993344, 0.291824012995, -0.077395588160, 0.103871993721, -0.025541577488, -0.040145255625, 0.053138647228, -0.173354133964, -0.053975299001, 0.309170424938, -0.024939220399, -0.055114760995, 0.011865927838, -0.002461890224, -0.114674076438, 0.203145682812, -0.310260176659, -0.136343732476, 0.033112637699, 0.071031868458, 0.027454078197, -0.091480590403, 0.092232897878, -0.184384927154, 0.116945639253, 0.097874321043, -0.180339872837, -0.025053301826, 0.000401380035, -0.029733272269, 0.029353441671, -0.020682970062, 0.047687977552, 0.196906596422, -0.024779735133, -0.055939644575, -0.059161309153, 0.070650026202, 0.012038977817, -0.128430783749, -0.056104451418, 0.254952430725, 0.012871980667, -0.002346927766, 0.027879280970, -0.020570196211, -0.081420727074, 0.098341174424, -0.093302436173, 0.009987305850, 0.047121416777, 0.040671486408, -0.060288567096, 0.021789578721, 0.061177667230, -0.117720186710, 0.064096145332, 0.057632677257, -0.189486980438, -0.070227690041, -0.067282132804, -0.038698196411, 0.222137778997, 0.083969250321, 0.264265179634, -0.084129698575, -0.064524695277, -0.020038276911, -0.081900857389, -0.189154401422, -0.159296974540, -0.084536828101, 0.057189021260, -0.077175565064, -0.092409603298, 0.036306723952, 0.042761247605, 0.088777430356, 0.045993123204, -0.092659227550, -0.095068387687, -0.257711827755, -0.032902326435, -0.027586007491, -0.083845660090, -0.027031829581, -0.062845326960, 0.095958605409, -0.155905500054, 0.042701490223, 0.071605242789, -0.008749030530, 0.065455146134, 0.378833889961, 0.297326445580, 0.336725890636, -0.429093003273, -0.032186686993, -0.300094991922, 0.066421009600, -0.500358939171, -1.161154985428, -0.354390949011, 0.598897099495, 0.405930012465, -0.215942084789, 0.196194812655, -0.493595749140, -0.457916766405, -0.483963787556, 0.301583707333, 0.523829936981, -0.222956061363, -0.069609992206, -0.707691192627, 0.381952583790, -0.144922196865, -0.307723671198, -0.401001602411, -0.357243746519, -0.721637904644, 0.339537769556, 0.437852412462, 0.249571189284, -0.022630216554, -0.202609971166, -0.663505077362, 0.246504738927, 0.056393995881, 0.255808800459, -0.419601738453, 0.249462231994, -0.453088819981, -0.487579375505, 0.251910656691, -0.362819254398, 0.020634151995, 0.058102726936, 0.371129572392, -0.041133645922, -0.090578325093, -0.003437366104, -0.195420861244, -0.513042688370, -0.059443984181, 0.591619551182, 0.044889375567, 0.027843274176, -0.283804833889, 0.290654957294, 0.068648472428, 0.020995214581, 0.541742444038, -0.073235057294, -0.270153909922, 0.193471133709, -0.180634245276, -0.040006414056, -0.057956799865, 0.001353119500, -0.009308828041, 0.207938537002, -0.066969968379, 0.023004617542, 0.031378962100, -0.121417529881, 0.054173890501, 0.028754968196, -0.063646890223, 0.209096223116, -0.159669965506, -0.026955360547, 0.076766312122, 0.087513513863, -0.128164827824, -0.116568885744, -0.045599378645, -0.083760619164, 0.124131374061, 0.050173252821, -0.018568962812, -0.029410397634, 0.133051872253, -0.058982789516, 0.114625483751, -0.006698953453, -0.158529460430, 0.076381355524, -0.046158324927, -0.104803845286, 0.181155800819, -0.193050637841, -0.603628039360, 0.438193023205, 0.289985179901, 0.435719281435, 0.007006880827, 0.218046456575, 0.215016365051, -0.316160678864, 0.519128918648, -0.174642592669, -0.123577959836, -0.301990747452, 0.153743550181, 0.396833807230, 0.179486721754, -0.003245868953, 0.148706972599, 0.202089518309, -0.742273569107, 0.012497102842, 0.311508178711, 0.208641260862, 0.282893538475, -0.321022808552, -0.410446166992, 0.159500241280, 0.188785791397, 0.222452819347, 0.243347197771, 