-0.713368237019, -0.096056066453, -0.234534472227, 0.590774118900, -0.387587755919, -0.290017843246, -0.030175618827, 0.007506671362, 0.420100569725, 0.499439120293, -0.140131965280, 0.194988593459, -0.381684631109, -1.068528175354, 0.343795180321, -0.369719892740, -0.634027957916, -1.155224442482, -0.270053684711, 0.004342097789, 0.467566937208, 0.298316419125, 0.255282491446, -0.471531689167, -1.144657850266, 0.280527204275, -0.241329118609, -0.177427977324, -0.010323874652, -0.039473291487, -0.156240060925, 0.234843581915, 0.234654784203, -0.246961891651, 0.121150076389, 0.434232443571, 0.172898247838, 0.038678746670, 0.018200948834, 0.533843398094, -0.357670634985, -0.254251569510, -0.245788648725, 0.209225818515, 0.051729559898, 0.699266076088, -0.205558270216, -0.534222006798, 0.167494967580, 0.656036257744, 0.568821132183, -0.337550580502, 0.559892237186, 0.061948005110, 0.305257916451, 0.341660946608, -0.450147807598, 0.515531420708, -0.800964474678, 0.932295203209, -0.048417974263, 0.020066846162, 0.358690500259, 0.133301213384, -0.748233318329, -1.313658833504, -0.641217410564, -0.389148563147, -0.458273261786, -0.674795389175, 0.015938892961, -0.775056958199, 0.362621188164, -0.429510504007, -0.563872694969, -0.775278389454, -0.435980230570, -1.098616003990, 0.176264777780, -0.893976569176, -0.313257426023, -0.734263002872, -0.516451179981, -0.871778547764, 0.670647978783, -0.382639467716, 0.661691427231, -0.978246450424, -0.238715797663, -0.259283989668, -1.547343015671, -0.790484249592, -0.669647157192, 0.000399945828, -1.710631966591, -1.071442484856, -0.194524660707, -1.239674210548, 0.047153607011, 0.177105545998, 0.097817219794, 0.169660791755, 0.009497465566, 0.613976597786, 0.739692568779, 0.041761524975, 0.014816522598, 0.041118822992, -0.229971617460, -0.835650861263, -0.493428975344, 0.126380905509, -0.112151868641, 1.373667955399, 0.358737856150, 0.161025628448, -0.281746685505, 1.227131009102, -0.201795458794, -0.103207796812, -0.030307371169, 0.187893733382, -0.094563908875, 0.279351949692, 0.247469633818, 0.020841881633, -0.717560291290, -0.326881468296, -0.827926456928, -1.243808627129, -0.579543232918, -0.528316915035, -0.090992599726, -0.270447373390, 0.005467259325, 0.335937857628, -0.157704085112, 1.077866911888, -0.051437381655, -1.163593173027, -0.901223361492, -0.198336854577, -0.527169108391, -0.495455294847, 0.643298208714, -0.969388723373, -0.538908243179, -0.070248186588, -0.606459438801, 0.044305544347, -0.138561695814, 0.033199727535, 0.095926374197, 0.123950317502, -0.570345699787, 0.002847307594, -0.081018850207, 0.002476303373, 0.721469879150, 0.235245570540, -0.156528145075, -0.083783961833, -0.332721382380, 1.184788584709, 0.184297427535, -0.144918039441, -0.009569235146, -0.887521803379, 0.529976963997, -0.027804296464, -0.058857142925, -0.148561626673, 0.263354361057, -0.260681807995, -0.403780370951, 0.037446655333, -0.503582000732, -0.015910387039, 0.194474145770, -0.210626959801, 0.059629715979, 0.223781302571, 0.497506976128, 0.106372758746, -0.225948721170, -0.144657924771, -0.140443414450, -0.074908517301, -0.306253373623, 0.001172731747, 0.396879345179, -0.192559823394, -0.238452836871, -0.730009794235, 0.435346990824, 0.018308160827, 0.831001639366, -0.129223152995, 0.012495830655, -0.165084123611, 0.264171063900, -0.098825134337, -0.296930581331, 0.144839659333, -0.152920812368, 0.048808567226, 0.105603761971, 0.032085366547, -0.025689363480, 0.870188057423, 0.290992021561, 0.630927085876, 0.304557949305, 0.602912724018, 0.821250498295, 0.263020128012, -0.091396026313, -0.242734372616, 0.447625011206, 0.272922158241, 0.240557715297, 0.010856791399, -0.349292486906, 0.881993472576, 0.023488143459, -0.147197142243, 0.289343506098, -0.117867715657, 1.013749599457, 0.760445237160, 0.023335723206, 0.135926961899, -0.001238363795, -0.020060326904, 0.460887402296, 0.542234182358, -0.889912366867, -0.165215745568, 0.636294841766, -0.263796925545, -0.053290531039, 0.706989347935, 0.795836567879, 0.344020694494, 0.287670820951, 1.009638667107, -0.083894208074, 0.020684944466, -0.253374665976, 0.019515359774, -0.315031915903, 0.517524540424, 0.364917129278, 0.028595082462, -0.271431088448, 0.483666807413, 0.077617451549, -0.344820261002, -0.429967492819, 0.365742832422, -0.072259075940, 0.332153141499, -0.011598817073, -0.120505049825, -0.227308794856, 0.422549068928, -0.160298988223, -0.866158664227, -0.640147566795, -0.208761379123, -0.172625675797, -0.658284664154, -0.356598734856, -0.137369617820, -0.420875728130, -0.414879024029, 0.256709575653, 0.536017537117, -0.029419614002, -0.082059420645, 0.211356192827, 0.095705769956, -0.813674747944, 0.285920292139, 0.227142155170, 0.000281306566, 0.716819405556, 0.133821189404, 0.841400384903, -1.185550332069, -0.361504137516, 0.108015321195, -0.457126170397, -0.960465312004, -0.008727992885, -0.500341176987, -0.516332030296, 0.465750128031, -0.714536964893, -0.736451923847, 0.115217246115, -0.615705072880, -1.055056214333, -0.675502181053, -0.396757781506, -0.167378321290, -1.132538557053, -1.706611633301, 0.589955925941, -0.942995250225, -1.134203672409, -0.977796912193, 0.177316710353, -0.216290771961, -0.770383119583, -0.525125741959, -0.735270023346, 0.004502263851, -0.801839172840, -0.868354022503, 0.364469021559, -1.205207109451, 0.332611948252, -0.149042591453, 0.503309249878, 0.477960109711, -0.030744155869, -0.418854624033, -0.882546007633, -1.472144007683, 0.251738727093, -0.231990158558, -0.344852536917, -0.418681353331, 0.066785112023, 0.245029538870, -0.493181258440, 0.657948493958, 1.449170947075, 0.168216750026, 0.222941920161, -0.637038528919, -0.266434192657, -0.179479420185, -0.010310847312, -0.940771937370, 0.439618736506, 0.430073469877, -0.108971357346, 0.008165122941, 0.353840798140, -0.533242046833, -0.738741576672, 1.170924782753, -0.153179690242, 0.398805320263, 0.568969368935, 0.087712779641, 0.004766447004, 0.444020926952, 0.247068122029, 0.465837985277, 0.264998316765, -0.123087130487, -0.465424686670, -0.028865784407, 0.900990307331, -0.694740891457, 0.126803770661, -1.239867210388, -0.390978783369, -0.267417013645, -1.208385586739, 0.317293286324, 0.475010335445, 0.376253634691, -0.931285083294, 0.059616219252, -0.682956993580, -0.046830020845, 0.433160036802, 0.013894859701, 0.213717922568, 0.478268116713, 0.171366244555, 0.775140225887, -0.905633449554, -0.121243134141, -1.182177305222, -0.901056528091, 0.021363260224, 0.318010717630, -0.066939830780, -0.525977909565, -0.599222838879, 0.440853834152, -0.469491750002, -0.392226397991, -1.125395774841, -0.436976820230, 0.155032426119, -0.280636489391, -0.014154385775, 0.385636478662, 0.291598975658, 0.307079970837, -0.457997322083, 0.277009755373, 0.181066170335, -0.896762967110, 0.288737505674, -1.098381876945, -0.854807615280, -0.017366791144, 0.586297035217, -0.555961430073, 0.425619125366, 0.404599785805, -0.074403494596, -0.005327625200, 0.026911024004, -0.073163226247, -0.026940207928, -0.114869900048, 0.000148061445, 0.876717031002, 0.641721963882, -1.102326273918, -0.016741804779, -0.048841636628, 0.200031295419, 0.096062690020, -0.297287374735, 0.653923213482, 0.719297468662, 0.104677118361, 0.237651243806, -0.020311361179, 0.577125132084, 0.031591340899, -0.080892227590, -0.126524448395, -0.005075498484, 0.954542696476, 0.502152860165, -0.024855384603, -0.231944844127, -1.026939272881, 0.538222312927, 0.244755759835, -0.092883326113, -0.640015125275, 0.049545966089, 0.546083331108, 0.003329235129, 0.366787314415, -0.248644694686, -0.166234850883, 0.523389935493, 0.082074828446, 0.125652298331, -0.284897238016, 0.641271948814, 0.795392334461, -0.464423686266, 0.408094555140, 0.199870854616, 0.316057056189, -0.121454499662, 0.121139869094, -0.185355857015, -0.315536767244, -0.487198144197, -0.357936084270, -0.663463294506, 0.975769519806, -0.240844011307, -0.011343077756, -0.409466534853, -0.288682103157, -0.026964684948, 0.402223050594, -0.827718198299, -0.190859735012, -0.414588540792, 0.236426144838, 0.038185078651, -0.250335574150, 0.467356562614, 0.709137439728, 0.101784743369, -0.163677334785, -0.429429411888, -0.373270511627, 0.341163069010, -0.343390882015, -0.344375222921, 0.040518891066, -0.591139733791, -0.193975329399, -0.820534348488, -0.711256384850, 0.042490404099, -0.036561816931, -0.671677529812, -0.125758215785, 0.048167336732, -0.905976712704, 0.414597302675, 0.000989921042, 0.145748183131, -0.652477920055, -0.117721363902, 0.985084176064, -0.632473409176, -0.304823517799, 0.590515196323, 0.290595591068, -0.020964346826, -0.418826133013, -0.659481346607, -0.705454885960, -0.169053897262, -0.020361443982, -0.353831529617, 0.306701689959, -0.504077076912, 0.115396685898, -0.283433973789, 0.338743537664, 0.840048670769, -0.495063334703, 0.425177872181, 0.147998899221, 0.291778922081, 0.294668287039, -0.513365507126, -0.007901598699, 0.183456972241, 0.144866421819, 0.831485509872, -0.031371716410, 0.477469742298, -0.288477450609, -0.946669340134, 0.297788441181, 0.488516718149, 0.427167594433, 0.308762967587, -0.378703892231, 0.007210662588, 0.565806627274, 0.464060068130, 0.850977420807, 0.260216027498, 0.541387319565, -0.294359475374, 0.311381816864, 0.110038653016, -0.269676178694, 0.390966713428, 0.563195765018, 0.276107609272, -0.361271411180, -0.319727092981, -0.148122653365, 0.286849707365, 0.429825961590, -1.227432012558, 0.407643347979, -0.193228259683, 0.099589973688, -0.208799362183, -0.012739818543, -0.079114198685, 0.111813656986, 0.227799177170, -0.450636208057, -0.143911018968, 0.655960679054, 0.216289237142, 0.967419922352, 0.026690689847, -0.286350131035, -0.146882966161, 0.467571526766, 0.212102919817, -0.436531186104, -0.397636383772, -0.141891688108, 0.430882096291, -0.051206648350, -0.868920803070, -0.315171271563, -0.146121874452, -0.066506311297, 0.690937221050, -0.081390790641, 0.306577384472, -1.832411885262, 0.090927749872, 0.172446295619, -0.205545559525, 0.036286052316, 0.714971959591, 0.006312545389, 0.613273918629, -0.147060662508, -0.493870913982, 0.440410673618, 0.324663668871, 0.171895012259, 0.346447736025, -1.050207972527, 0.040660288185, -0.064110942185, 0.037357639521, -0.250330507755, 0.357659399509, 0.355561435223, -1.655723214149, -0.767563581467, 0.233011245728, -0.839758634567, 0.003743777750, 0.292380332947, -0.678944587708, 0.286347478628, 0.626350820065, -0.754509031773, 0.313400119543, 0.256928294897, -1.057416439056, 0.196335732937, 0.364668965340, -0.623327195644, -0.144389718771, -0.000819586625, -0.340338706970, 0.217038810253, -0.114460408688, 0.419924259186, -0.178687334061, -0.578753948212, 0.617587625980, 0.293387174606, 0.040646854788, -0.427420735359, 0.395387560129, 0.863509178162, 0.373428314924, -0.168858259916, 0.197959586978, -0.317777931690, 0.304339468479, 0.814509391785, -0.389568209648, 0.587964236736, -0.222941204906, 0.591398239136, -0.719677686691, -0.264208137989, 0.344409763813, 0.896550297737, -0.077306725085, -0.471331775188, 0.108962103724, -0.253021121025, -0.036410920322, 0.023948816583, -0.334966629744, -0.201275050640, 0.174793377519, 0.883442521095, 0.293953835964, -0.329733967781, 0.297513216734, -2.028970718384, 0.029335271567, 1.103036284447, -0.833800792694, 0.144031301141, -1.403858661652, 0.072910040617, -0.018827095628, -0.347260862589, 0.363590538502, -0.680623292923, 0.207260817289, -0.042991634458, 0.039544448256, 0.003315726994, 1.490548968315, -0.053759761155, 0.034957155585, 0.445093750954, -0.150746077299, -0.269231170416, 0.235374987125, 0.262266546488, -0.028187396005, 0.003105176147, -0.672818005085, 0.450538545847, -0.453462541103, -0.685402035713, -0.317384749651, 0.761358380318, 0.414500176907, -0.250473260880, -0.030357159674, -0.298829078674, 0.223716080189, 0.068837717175, -0.465920478106, -0.156301751733, -0.524051964283, 0.449577480555, -0.307335972786, -0.176693901420, 0.283276289701, 0.259046435356, 0.557802021503, -0.539148509502, -0.341096758842, 0.600809335709, 0.044797640294, 0.202725455165, -0.623745739460, 0.226155385375, -1.031963348389, -0.286005020142, -0.167537644506, 0.003723399714, 0.660287380219, 0.525016963482, -0.281057745218, -0.508737027645, 0.006196866743, 1.055888891220, 0.346625626087, 0.972318291664, 0.010492092930, -0.589041531086, -1.565480470657, -0.102807320654, 0.157719194889, -0.293131411076, -0.548449933529, -1.400495886803, -0.241166353226, -0.450258105993, 0.205691248178, 0.148066535592, 0.191433504224, -0.017007695511, -0.046103823930, 0.575454354286, -0.128827646375, 0.694352567196, 0.155537933111, 0.720752239227, 0.095016047359, 0.863809943199, -0.325653314590, 0.007933937013, 0.252559393644, 0.342178910971, -0.564976274967, 0.069639891386, 0.157627224922, -0.828912496567, 0.199945002794, 0.630680024624, 0.032763268799, -1.829390048981, -0.444446116686, -0.557209432125, -0.661277055740, -0.131613940001, -1.177197456360, -1.013575673103, 0.871163666248, -0.301290810108, 0.351298898458, -1.175289392471, -1.438863515854, -0.177133738995, -0.760118305683, -0.639407634735, 0.123458556831, -0.023562069982, 0.222507148981, 0.832286834717, 0.083248086274, -0.906665265560, 0.634634137154, -0.000112188172, 0.564440310001, -0.423655956984, -0.068859279156, 0.383669465780, 0.310750156641, -0.259345024824, -0.260248422623, 0.408893138170, -0.007501352578, 0.752746760845, 0.245398953557, 0.353550642729, 0.303236305714, 0.031229237095, 0.090768091381, 0.567251443863, -0.517946183681, 0.714422941208, -0.381804049015, 0.064115814865, 0.626767158508, 0.054113663733, 0.020342700183, 0.717127144337, -0.290676087141, -0.267016828060, 0.445959746838, 0.335141956806, 0.493643730879, -0.067277789116, 0.085342079401, 0.007140090223, -0.671881318092, 0.361729234457, -0.033725656569, 0.156276389956, -0.140671923757, 1.040771484375, -0.288289248943, -0.341847360134, 0.021943908185, -0.615911602974, -0.151941746473, -0.612106978893, -0.180055558681, -0.362000823021, 0.026023758575, 0.374272823334, 0.055176764727, -0.401779472828, -0.277451127768, 0.586071074009, -0.325904101133, 0.288842320442, -0.312778621912, 0.129574060440, -0.013479769230, -0.244772195816, -0.506572127342, -0.045658834279, -0.141024172306, 0.679788470268, -0.543400585651, 0.003944586031, 0.331115961075, 0.504195511341, 0.516825318336, -0.149354457855, 0.374520868063, -0.686531960964, -0.069909408689, -0.092373326421, -0.001973858103, 0.734299778938, -0.975140452385, -0.946871817112, -0.127829506993, 0.411359369755, 0.152930125594, -0.115347452462, 0.228941187263, 0.433898240328, 0.575769901276, -0.132904276252, 0.162570536137, 0.529659390450, -0.859780430794, -0.368557602167, -0.283725738525, 0.415350556374, 0.622472763062, -0.854982316494, 0.337191402912, -0.380778968334, 0.014480433427, 0.007963124663, 0.093645200133, -0.327864110470, 0.341087996960, 0.873255372047, -0.056341297925, -0.387879788876, 0.262545853853, 0.208819970489, -0.005340432748, 0.142841517925, 0.169136360288, 0.003397061024, -0.344598889351, -0.039097920060, 0.274935871363, -0.306171029806, 0.085582740605, 0.076961196959, 0.083704039454, 0.285606175661, 0.001123947790, 0.515276789665, -0.020350901410, 0.073065191507, 0.131400272250, 0.835806250572, 0.438714236021, -1.100376009941, 0.447118312120, -0.662954092026, 0.059943441302, -0.005346034188, -0.078214876354, -0.327804535627, 0.092026665807, -0.359269112349, -0.230046197772, -0.081958301365, 0.505403995514, -0.038302615285, 0.037441883236, -0.161009788513, -0.652957379818, -1.596349835396, -0.232421144843, -0.559703648090, 0.120058171451, -0.752534747124, -0.340685188770, -0.550557732582, -0.587178468704, 0.292552620173, -0.074280209839, -0.507973551750, 0.258487731218, -0.444043248892, -1.040606617928, -1.204279422760, -0.014054732397, -0.529738426208, -1.111691832542, 0.691145837307, 0.278105199337, 0.026716059074, 0.548494100571, -0.149103775620, 0.260319530964, -1.051165699959, -0.186457559466, 0.583831131458, -0.310297518969, 0.255345731974, 0.016903294250, -0.030750634149, -0.125520914793, 0.754778087139, 0.462717533112, 0.014133808203, -0.483282834291, -0.005705303978, 0.696820080280, -0.363225758076, -0.035054489970, -0.293529152870, 0.340173602104, -0.101001046598, 0.400547713041, 0.146337583661, 0.885289251804, -0.150453269482, 0.530699014664, -1.201112151146, 0.477773010731, 0.733667135239, 1.272762417793, 0.000468341925, -0.605841994286, 0.577000677586, -0.821125209332, -0.658873617649, -0.030285755172, 0.546333372593, -0.359700292349, -0.889327049255, 0.059232648462, -0.335820049047, 0.005639377050, 0.487985610962, -0.747131109238, 0.075192667544, -0.508942067623, -0.224880889058, 0.290242731571, -0.462247967720, -0.012548870407, -1.369745612144, -0.175405874848, -0.147699430585, -0.351970851421, 0.461087256670, -0.165829718113, -0.374342769384, -0.021213151515, -0.143989190459, -0.017134562135, -0.000681930804, -0.076376982033, 0.027876546606, -0.150498449802, 0.786617934704, 