-0.417646229267, 0.411801367998, -0.391911119223, 0.124399676919, -0.714208066463, 0.571602046490, -0.179848596454, 0.425385147333, 0.330087840557, 0.571905791759, -0.689579904079, 0.036527916789, -0.332514017820, -0.458118885756, -1.242649674416, -0.145549252629, -0.443745881319, 0.069442845881, -0.029676690698, 0.171009600163, 0.527804255486, 0.648122072220, -0.173742234707, -0.514299452305, -0.488693863153, -0.040738545358, -0.074309825897, 0.444688886404, -0.064108118415, -0.349624156952, 0.039051841944, -0.320411294699, -0.437568277121, -0.176664367318, -0.192380577326, 0.280620783567, 0.109524153173, -0.133563101292, 0.042220711708, 0.389607965946, -0.872879266739, -0.301675409079, -0.057676333934, -0.042147699744, -0.025530153885, 0.457560092211, 0.002704524668, -0.338515609503, 0.048844303936, 0.171602770686, -0.047304678708, -0.356732577085, -0.061641365290, 0.117106407881, -0.053869854659, 0.496170014143, -0.166013777256, 0.396949380636, -0.191534370184, 0.563569784164, -0.108525432646, 0.516204059124, 0.095511466265, 0.083406977355, -0.743071138859, 0.138832390308, -0.687312066555, -0.097362004220, -0.952849626541, -0.031315896660, -0.875797390938, -0.703047394753, -0.264405697584, -0.198054209352, -0.548331797123, -0.620406508446, -0.276814103127, -0.317904174328, -1.015107750893, 0.060643963516, -0.309458613396, -0.335496395826, -0.660497605801, -0.101566642523, -0.273358106613, -0.629401922226, -0.229770988226, -0.422624647617, 0.216550573707, 0.080971784890, -0.491633623838, -0.585530877113, -0.258861780167, -0.572615444660, -0.481234937906, -0.843358159065, 0.237385720015, 0.267776906490, -0.577662587166, -0.466201990843, -0.378197193146, 1.312057018280, -0.035761091858, -0.279381632805, -0.678872942924, -0.791296660900, -0.110940739512, -0.122338287532, -0.256080657244, 0.101079650223, 0.157840237021, -0.344478487968, -0.060407470912, -0.405943423510, -0.402055412531, 0.080001130700, -0.417696058750, 0.509136080742, 0.061426736414, -0.760178148746, -0.520757138729, -0.239888638258, -0.568467378616, 0.109408982098, -0.442967027426, -0.332171559334, -0.268789321184, -0.415432542562, -0.580631017685, -0.334349900484, -0.178759664297, -0.108995698392, -0.273100823164, -0.631692051888, 0.547353029251, 0.185372218490, 0.345465600491, 0.485549211502, 0.057241007686, -0.449850142002, -0.457020193338, -0.194816410542, 0.569106757641, -0.162776872516, 0.079989127815, -0.243200257421, -0.311355501413, 0.224392175674, -0.300591528416, 0.104366466403, -0.099097609520, -0.511486232281, -0.523931443691, 0.370001554489, 0.098990306258, -0.200403884053, 0.048745401204, -0.056389324367, 0.446471005678, -0.226467177272, -0.343819081783, -0.151864916086, -0.270317465067, 0.351846009493, 0.159876242280, 0.364837497473, -0.176447615027, -0.580892622471, 0.247189089656, 0.291801571846, 0.127033427358, -0.526251196861, 0.081938907504, -0.241968393326, -0.469077199697, 0.030007367954, -0.366454839706, 0.494731009007, 0.027861762792, -0.139123633504, 0.195329248905, 0.554281592369, 0.118881650269, -0.028971394524, -0.205518811941, 0.542592644691, -0.397010117769, 0.091826878488, 0.116922751069, -0.120777457952, 0.285129159689, 0.198489949107, 0.434158086777, 0.447224587202, -0.103529699147, -0.011172457598, 0.186552464962, 0.015551520512, 0.238472402096, 0.116650022566, -0.504371345043, 0.564931929111, 0.209393277764, -0.467182308435, 0.066173009574, -0.156866446137, 0.013208016753, 0.015508092940, -0.543200314045, 0.498452484608, -0.411976546049, 0.494672805071, 0.675530910492, -0.041160583496, -0.125692859292, -0.242654621601, 0.237640768290, -1.040387868881, -0.057783816010, 0.424173831940, 0.397011339664, -0.251493304968, -0.131091520190, 0.238864764571, 0.511964976788, 0.155388027430, -0.199718430638, 0.185278147459, -0.174913853407, 0.141352623701, 0.332890480757, 0.404260039330, 0.266872048378, 0.836782693863, 0.106912642717, 0.255240201950, -0.483540862799, -0.141543701291, -0.107933208346, -0.406513035297, 0.048470556736, -0.126363500953, -0.484653204679, 0.206339538097, 0.270441204309, 0.218378409743, 0.097463421524, 0.193439632654, -0.344356149435, -0.385779291391, -0.012533468194, 0.295712679625, 0.205312669277, 0.251869082451, -0.541329681873, -0.064037665725, -0.584844946861, -0.238969728351, -0.113757029176, 0.361998200417, 0.095525018871, -0.206715971231, 0.165002763271, -0.081880733371, 0.099493443966, 0.253519326448, 0.001440512249, -0.562888443470, -0.534969747066, 0.404233515263, -0.103298433125, -0.605524420738, -0.336973220110, -1.692950367928, -0.748382925987, -0.367325782776, 0.367457777262, 0.415284574032, -0.390048325062, -0.064105957747, -0.869541347027, 0.463298946619, -0.578868329525, -0.043917730451, -0.038479305804, -0.132357910275, 0.523254692554, 0.089704133570, -0.108655758202, 0.108205132186, -0.401178568602, -0.219743713737, -0.046922307462, -0.219499275088, 0.530749201775, -0.365527510643, -0.613411962986, 0.222216054797, -0.322092264891, -0.333213716745, -0.723076164722, -0.005433334969, -0.143686547875, -1.262854456902, 0.183459535241, -0.192222207785, -0.241023510695, -1.122263193130, -0.540309786797, -0.076184391975, -0.009660487995, 0.194029733539, -0.643412590027, 0.376206696033, -0.581644475460, -0.358519166708, -0.017843313515, -0.004256231710, -0.794851601124, -1.059426665306, 0.363311171532, -0.110240235925, 0.036884631962, 0.295915156603, 0.126073941588, 0.349756807089, -0.402092516422, -0.104902610183, -0.471074759960, -0.298712402582, 0.428567886353, -0.256481498480, -0.047360654920, -0.901968717575, 0.097704686224, 0.216087147593, -0.082190059125, 0.038664642721, 0.457240492105, 0.519021809101, -0.646113097668, 0.153435453773, 0.247433796525, 0.411044657230, -0.198165282607, -0.601614832878, 0.801465868950, 0.450624972582, -0.879873752594, 0.237935811281, 0.028535092250, 0.182898685336, 0.119876094162, 0.068850360811, -0.185719177127, -0.449999123812, 0.453912556171, -0.107556544244, -0.098604582250, -0.104870274663, -0.927092313766, -0.379742205143, 0.394334107637, -0.213531926274, -0.502040743828, -0.336143493652, -0.091810464859, -0.225447699428, 0.153670266271, -0.929244875908, -0.903985381126, 0.084237150848, 0.035741232336, -0.348412007093, 0.008084584028, 0.472621977329, -0.442503541708, 0.009729551151, -0.497980028391, -0.510436892509, -0.624268591404, -0.743221342564, 0.290552109480, -0.552761077881, -0.476516336203, -0.315028995275, 0.159991845489, 0.497728198767, -0.417969256639, 0.163009181619, 0.535251677036, 0.079646319151, 0.357954680920, 0.125053048134, 0.215223312378, -0.461770921946, -0.199720650911, 0.045200631022, -0.267572134733, -0.460901379585, 0.157197639346, -0.330111503601, -0.150901615620, 0.104254148901, 0.764007389545, 0.513566017151, 0.106290638447, 0.145033895969, 0.365070492029, 0.788021981716, 0.133840471506, 0.026544407010, 0.760996818542, 0.051075570285, 0.212393388152, -0.525265395641, 0.869173943996, 0.266339421272, -0.277256280184, -0.391713768244, 0.087044417858, -0.714598774910, 0.194445803761, -0.200775399804, 0.198173806071, 0.279087901115, 0.388241320848, -0.551052570343, 0.483099490404, -0.279867917299, 0.402548968792, -0.175483077765, -0.450913608074, -0.040526106954, 0.176302686334, 0.216805413365, 0.383322715759, -0.210537329316, 0.071309067309, 0.043606247753, 0.179785251617, -0.208494082093, 0.202762603760, -0.646411299706, 0.026822276413, 0.159207716584, -0.748637855053, -0.436385989189, 0.448890447617, 0.188421487808, -0.051940213889, -0.417808145285, 0.450289309025, 0.497313290834, 0.429393470287, 0.316026687622, -0.663282513618, -0.227625295520, 0.281283468008, 0.428895354271, 0.040713999420, -0.722547054291, 0.165215209126, 0.635992705822, -0.028113614768, -0.829985260963, 0.010810130276, 0.235969558358, 0.087478108704, -0.178786158562, -0.027842778713, -0.090599820018, 0.007367916405, -0.639556586742, 0.217092186213, -0.069716408849, -0.178710266948, 0.150339469314, -0.306143760681, -0.485152781010, -0.016137251630, -0.100722029805, -0.273505717516, 0.078567497432, 0.185698464513, 0.424742579460, 0.298659026623, -0.084361597896, -0.012496717274, 0.499587148428, 0.373164325953, 0.168340012431, -0.248579666018, -0.419006377459, 0.143001243472, -0.184768274426, -0.135598838329, 0.300387948751, 0.293089598417, 0.406381934881, 0.347610205412, -0.033737082034, -0.088940106332, -0.277285397053, 0.033281508833, -0.671984970570, -0.172990202904, 0.193199202418, 0.376880913973, 0.057290930301, 0.211644575000, -0.027466064319, -0.652396500111, -0.321265548468, 0.494899094105, -0.753618061543, 0.752050161362, -0.172099366784, -0.612658441067, -0.217931896448, -0.578640937805, -0.443945467472, 0.405940294266, -0.203393712640, 0.277253329754, -0.043178435415, -0.493349283934, -0.248327016830, -0.131258860230, 0.199824780226, 0.132424518466, -0.160804361105, 0.137134149671, -0.213112145662, -0.060194663703, -0.147986635566, -0.598734259605, 0.144230365753, 0.114190503955, -1.359286189079, 0.207198038697, 0.238543391228, 0.595559537411, -0.268448084593, -0.324871987104, 0.072026856244, 0.341244906187, 0.249475672841, 0.008784373291, -1.059051156044, 0.037186242640, 0.271184623241, 0.221424430609, 0.505879521370, 0.395781487226, 0.471831142902, 0.386047691107, 0.312922060490, 0.007916809991, 0.441277474165, 0.719216048717, 0.335656285286, 0.108867391944, 0.241724565625, -0.161012664437, 0.863125324249, 1.315415501595, 0.471427261829, -0.423227429390, 0.388404816389, 0.351866632700, 0.059597454965, -0.083699889481, 0.247898831964, -0.125162884593, 0.462012588978, 0.061288647354, 0.183264881372, -0.402885884047, -0.179276749492, -0.008321898989, 0.368608266115, 0.160041317344, -0.241727739573, -0.254457831383, -0.185476869345, 0.520639300346, -0.889813661575, -0.173469841480, 0.257174044847, 0.230833023787, 0.418455719948, -0.431583344936, 0.095598958433, -0.646808087826, 0.377178668976, 0.570876717567, -0.087138272822, 0.030185149983, -1.003106236458, 0.332212418318, 0.038738269359, 0.525795638561, 0.070378988981, 0.444491565228, -0.425644636154, 0.271173149347, 0.402189970016, -0.369255751371, 0.378428131342, 0.042642354965, -0.009524475783, -0.310912996531, 0.360821813345, 0.149682655931, 0.708857834339, 0.066025249660, 0.225246131420, 0.084806002676, -0.150983646512, 0.277432262897, 0.298505336046, 0.650963068008, -0.714045763016, -0.073926486075, 0.251372128725, 0.563431322575, -0.711190462112, -0.009406566620, -0.328924894333, 0.126604139805, -0.263988822699, -0.746375620365, -0.146629005671, -0.175129756331, 0.042480792850, 0.401418030262, 0.181556314230, -0.634590744972, 0.363263636827, -0.259069025517, 0.423630535603, 0.189897596836, -0.163421317935, -0.306659400463, -0.983229696751, 0.633990287781, 0.040011972189, -0.211272031069, 0.245935320854, -0.152045503259, 0.107084222138, -0.222470521927, 0.033297229558, 0.477405935526, 0.103263854980, -0.303485363722, 0.011421952397, 0.051495786756, 0.739334046841, -0.454033166170, -0.441674977541, -0.290177822113, -0.350183546543, 0.040930978954, -0.496391773224, 0.473395884037, -0.355423122644, 0.250108748674, 0.009026914835, -0.474236279726, -0.577984750271, 0.429467350245, 0.201843261719, 0.403738319874, -0.186617642641, 0.161127895117, 0.105127751827, 0.448957175016, 0.429040282965, 0.091388039291, 0.700192928314, 0.101739607751, 0.098726630211, 0.194867178798, -0.273319691420, 0.679656326771, 0.069457188249, 0.135472387075, 0.091056272388, 0.462203770876, 0.342284798622, 0.424758583307, -0.022501552477, -0.143901288509, 0.118445172906, -0.473504215479, -0.203672856092, 0.318931639194, 0.007852265611, -0.671870708466, 0.755939841270, 0.190613448620, -0.379722177982, -0.630372166634, -0.221006765962, 0.205612972379, 0.385840892792, 0.386692076921, -0.965324401855, -0.449513942003, -0.276979327202, 0.098297737539, 0.229628011584, -0.224632203579, 0.230781763792, -0.232173755765, 0.402977526188, 0.075731672347, -0.154084995389, 0.338414996862, 0.348650306463, 0.584623336792, -0.445298343897, -0.066533870995, 0.459846526384, -0.000559228007, 0.134315758944, -0.733559727669, 0.253031104803, -0.188673019409, -0.359615832567, -0.350710481405, 0.491015702486, 0.263130187988, 0.505645692348, 0.286324799061, 0.229268491268, -0.335463196039, 0.425899386406, 0.286903262138, 0.302481651306, 0.038008008152, -0.377973705530, -0.965260028839, 0.150518819690, 0.532705366611, -0.797884404659, -0.168839812279, -0.305560886860, 0.445408254862, 0.038761351258, 0.353808313608, 0.262111961842, 0.477570474148, 0.585901796818, 0.014872676693, 1.236624717712, -0.129130646586, -0.087113320827, 0.191361695528, 0.529893517494, -0.159493952990, 0.460020601749, -0.947380304337, 0.328333109617, 0.321509331465, 0.553149640560, -0.067353591323, -0.573366641998, -0.068258896470, -0.825657427311, 0.381782919168, -0.300048321486, 0.567034721375, -0.038513947278, 0.396977484226, -0.065121389925, -0.467589914799, -0.078790068626, -0.068639829755, -0.106787011027, 0.851064980030, -0.355922549963, -0.422334223986, -0.904881477356, -2.005946636200, -0.255530476570, -0.123079150915, -0.008757976815, -0.063446506858, 0.422571569681, 0.078545749187, 0.195090532303, -0.092326596379, -0.547166943550, 0.066941864789, -0.097235903144, -0.446206420660, 0.242745146155, -0.480006039143, 0.759665131569, 0.351182401180, 0.893826842308, -0.386754095554, 0.180577516556, -0.245988681912, 0.191001713276, -0.294177800417, 0.280944377184, 0.215362861753, 0.007748349570, 0.197815805674, 0.220674827695, 0.087734416127, 0.749475419521, -0.064070202410, 0.279583990574, 0.516781628132, 0.918085336685, -0.344800353050, 0.591291904449, -0.330198973417, 0.148525342345, -0.261180192232, -0.012753040530, 0.607943892479, -0.048631232232, 0.083920277655, 0.485927015543, -0.477963358164, 0.441944569349, 0.272001862526, -0.321951121092, -0.081122010946, 0.157039716840, -0.250414311886, -0.316930234432, 0.040480345488, -0.054430376738, 0.306965649128, -0.485603272915, -0.097459442914, -1.313582539558, -0.247660726309, 0.469154447317, -0.095185346901, -0.460816711187, -0.451243013144, 0.384012937546, 0.118380405009, 0.052709225565, -0.140169411898, 0.443394362926, 0.118089661002, 0.211590349674, -0.464709848166, 0.049211792648, -0.268709599972, 0.133680537343, -0.341846048832, 0.270814865828, 0.657479941845, 0.540877938271, 0.369645237923, -0.062122538686, 0.360410839319, -0.314658224583, 0.201561465859, 0.193364366889, -0.399746567011, -0.389308184385, -0.684653162956, -0.841564178467, -0.095653951168, 0.356238961220, 0.372085452080, 0.133848369122, -0.199313908815, -0.054241113365, 0.588129818439, -0.056326597929, 0.048028822988, 0.265549093485, -0.314436137676, -0.487622708082, 0.313030421734, 0.138851746917, 0.407986879349, -0.318286329508, 0.154829666018, -0.605000317097, 0.081215456128, -0.178733006120, -0.225466176867, -0.338027268648, 0.288417756557, 0.544051826000, 0.282457321882, -0.197214096785, 0.448723733425, 0.486465215683, -0.256637752056, -0.715851485729, -0.083450265229, -0.557711780071, -0.248007193208, -0.176480934024, 0.411185562611, 0.118764825165, -0.306007444859, -0.007085987832, -0.277075529099, -0.359290271997, 0.313724935055, 0.169048666954, -0.380694478750, 0.041933305562, -0.172439724207, 0.475122064352, 0.368854463100, -0.083341263235, 0.095678567886, -0.450311958790, 0.468344002962, 0.372019946575, -0.465581029654, -0.303524464369, 0.438249319792, 0.212172672153, -0.300252437592, 0.597893834114, 0.362311035395, -0.139964595437, -0.437216341496, -0.894884467125, -0.505552053452, -0.159068897367, 0.305979251862, 0.027862321585, -0.435406386852, 0.074017405510, -0.324256896973, -0.246618226171, -0.000413026253, -0.102901086211, -0.143358215690, -0.177888840437, 0.718095123768, 0.255081295967, 0.721832275391, 0.501408815384, -0.437770128250, 0.058861814439, 0.236156806350, 0.473769396544, 0.334898561239, -0.116158843040, 0.142483025789, -0.115331940353, -0.128910899162, -0.406204044819, -0.069842122495, -0.655512392521, 0.037083733827, -0.019447650760, -0.157935038209, -0.111834771931, -0.290335714817, -1.169042706490, 0.337320059538, 0.202582851052, 0.704989492893, -0.856319725513, 0.525698542595, 0.243215039372, -0.610446691513, -0.587433874607, -0.872817397118, -0.166925713420, 0.575769424438, -0.204487442970, -0.010926018469, -0.497104138136, 0.615783393383, -0.806322455406, 0.072729840875, -0.046884536743, 0.269356101751, -0.043632745743, -0.791089177132, -0.171380147338, -0.097787983716, -0.954075515270, 0.569381177425, -0.931915283203, 0.106961153448, 0.169128254056, 0.408278286457, 0.277951925993, -0.221474647522, -0.428521990776, -0.287957191467, -0.376556694508, -0.211832880974, -0.523051559925, 0.202842950821, -0.729358196259, 0.202713996172, 0.189516529441, 0.392749279737, -0.434727102518, -0.184570804238, 0.869526982307, 0.602812170982, -0.502486228943, 0.317845553160, -0.177396327257, -0.331583529711, 0.431571424007, -0.879567801952, 0.952712655067, 0.684718072414, 0.013715798035, 