-0.224969968200, 0.588506519794, -0.423735141754, -0.039419375360, -0.346297532320, -0.240291059017, 0.545332849026, -0.124662093818, -0.264975130558, -0.169008091092, 0.801610291004, 0.073362983763, -0.156619489193, 0.774740934372, -0.265207082033, -0.766684591770, 0.253015756607, -0.090276196599, -0.304012745619, -0.515012621880, -0.086237326264, 0.630978405476, 0.250582456589, 0.368333131075, -0.334402471781, -0.289449721575, 0.481725245714, -0.411870002747, -0.540166079998, 0.624721765518, -0.360721975565, 0.072722204030, -0.396030336618, 0.363697439432, 0.446859449148, -0.600198924541, 0.279162257910, -0.177873805165, -0.465017855167, 0.421218454838, 0.539514899254, 0.464582651854, -0.275998741388, -0.655515074730, -0.167114764452, 0.150888219476, -0.211794540286, -0.606484949589, 0.522878408432, 0.272927135229, -0.180261924863, 0.335462182760, -0.501509904861, 0.263743489981, 0.286183774471, -0.754620969296, -0.153957515955, -0.169885128736, 0.098359525204, -0.616077840328, -0.516342997551, 0.136681720614, -0.292326837778, -0.046324256808, 0.030842598528, 0.489408373833, 0.170130610466, 0.296457290649, -0.150250241160, 0.090041607618, 0.637293338776, -0.347221404314, -1.033147931099, -0.029600046575, -0.380815863609, 0.162497609854, 0.602540135384, 0.265470653772, -0.220267221332, -0.180529311299, -0.492434024811, -0.441759228706, 0.706934571266, -0.152005612850, -0.591214478016, -0.126554340124, -0.381782799959, 0.416983962059, -0.274736732244, -0.059144224972, -0.937112510204, 0.743681490421, 0.420895427465, 0.126257494092, 0.199065566063, 0.720587611198, 