0.419994294643, 0.130258038640, -0.082538060844, 0.378433436155, -0.040267452598, -0.176701784134, 0.416449338198, -0.134321421385, 0.192656472325, 0.153373554349, 0.106220744550, -0.051440529525, 0.081652052701, -0.186419799924, -0.295252025127, -0.411929368973, -0.068977944553, -0.290293335915, 0.062062915415, -0.017405880615, 0.012456414290, 0.274876296520, -0.034294363111, 0.237207621336, 0.017960991710, 0.038209393620, 0.017926627770, -0.019123034552, -0.146018430591, -0.135885551572, 0.206572800875, -0.069522216916, 0.182160407305, -0.075413331389, 0.283131837845, 0.267648577690, -0.007186116651, -0.183188155293, 0.081716515124, 0.069264106452, -0.057696722448, 0.360033750534, 0.075858891010, -0.214278876781, -0.072252959013, -0.053221307695, 0.244215622544, 0.201999008656, -0.039218705148, -0.229750558734, 0.068231917918, -0.211066335440, 0.310450583696, 0.135762542486, 0.027074573562, -0.029649203643, 0.029941802844, -0.213921874762, -0.076237939298, 0.090394414961, 0.252827703953, -0.181096822023, 0.014658382162, -0.201086044312, 0.498038619757, 0.238918393850, -0.231187164783, 0.093294687569, 0.240497186780, 0.000468889542, 0.181250050664, 0.449790060520, -0.160595044494, 0.399098873138, 0.006026138086, 0.468853801489, -0.245428070426, -0.202586978674, -0.175811678171, -0.043442390859, 0.225349768996, 0.130105227232, -0.074484445155, -0.399109631777, -0.326873838902, -0.137166634202, -0.156324177980, 0.125998213887, -0.217898011208, 0.190200343728, -0.320319473743, 0.177558273077, 0.181625619531, 0.005067598540, -0.393507689238, -0.045396670699, 0.069521218538, 0.441293060780, -0.380613714457, 0.132517784834, 0.173290789127, 0.264845728874, 0.258052796125, -0.065734036267, -0.499521851540, -0.566134035587, 0.076885797083, -0.600933670998, 0.651009023190, -1.023476600647, -0.056358303875, -0.229008331895, -0.752690136433, -0.553160667419, 0.134546160698, 0.181802496314, -0.392518848181, -0.199483111501, -0.558311820030, -0.463709473610, 0.726731538773, -0.109418943524, -0.296995609999, -0.369996488094, -0.141594126821, 0.312117636204, -0.049408413470, 0.071733750403, 0.001366797718, 0.042618189007, 0.172100394964, 0.188401594758, 0.134541168809, 0.292200833559, -0.256961315870, 0.089849039912, 0.121905446053, -0.064872421324, 0.116948276758, -0.018304156139, 0.023499397561, 0.065899081528, -0.156043589115, -0.172559767962, 0.269528061152, 0.364078670740, -0.328239321709, -0.133513867855, -0.052043989301, 0.554548799992, -0.303146958351, 0.198816120625, -0.437615245581, 0.085792995989, 0.387311220169, -0.182720124722, 0.140676617622, 0.177145093679, 0.278773933649, 0.388447999954, 0.265938133001, 0.142777740955, 0.214470610023, -0.050790019333, 0.115306317806, -0.074776120484, -0.122230932117, -0.050449673086, -0.073605842888, 0.007491827477, 0.068706087768, 0.061599805951, -0.254695147276, 0.084911212325, 0.036348167807, -0.047768812627, 0.194933906198, -0.189636364579, -0.326472431421, 0.047463726252, 0.294858545065, -0.278415828943, 0.195552721620, 0.283392071724, -0.128945618868, 0.214690402150, -0.312246710062, 0.194234445691, -0.164236605167, -0.067664705217, -0.466881364584, -0.182783454657, 0.377985298634, -0.080191604793, -0.103702649474, 0.148375585675, -0.274287253618, -0.089831866324, -0.244774714112, 0.050495490432, -0.213150233030, 0.050429247320, 0.119772233069, 0.132485747337, -0.057040628046, -0.172331571579, 0.042397156358, -0.083841957152, 0.215531080961, -0.308510094881, 0.013044998981, -0.248307630420, 0.114457316697, -0.078935027122, 0.145047575235, 0.317245244980, -0.235237389803, 0.260535418987, 0.114533625543, 0.063594542444, -0.153160303831, -0.167877361178, 0.325883299112, -0.054210096598, 0.237595677376, -0.017172107473, 0.088397786021, -0.058868762106, -0.102649420500, -0.149535685778, 0.526059269905, -0.001246451749, -0.162906751037, -0.401750922203, 0.096265301108, -0.291887670755, 0.053253430873, -0.067568764091, 0.033886916935, 0.109945021570, -0.311257898808, -0.095147207379, -0.002400106750, -0.525932967663, 0.118267126381, 0.149302914739, 0.299348473549, 0.074018061161, 0.047698896378, -0.026074508205, -0.129942134023, -0.202779337764, -0.111230038106, -0.045542437583, 0.043747540563, 0.105333626270, -0.441170901060, -0.671643853188, 0.147240340710, -0.240900546312, -0.167079806328, -0.323596656322, 0.031917992979, -0.047709334642, -0.139652639627, -0.267061710358, -0.080083042383, 0.085353136063, -0.032113604248, -0.714513540268, 0.001790889073, -0.105973780155, 0.058779913932, -0.069498926401, 0.023880107328, 0.503954231739, -0.040454309434, -0.140681758523, 0.341496855021, 0.040832869709, -0.467082381248, -0.383765935898, -0.245780155063, -0.455388009548, -0.367802053690, -0.082383662462, -0.403915911913, 0.077688984573, -0.269135683775, 0.705044269562, -0.548212707043, -0.467908293009, 0.430398821831, -0.449666261673, -0.361453026533, 0.027802977711, -0.213657021523, -0.023271536455, -1.025604486465, 0.305113643408, 0.699777185917, 0.459783047438, -0.169748365879, -0.400769591331, -0.338657259941, -0.315875828266, -0.113431774080, -0.884106755257, -0.190193518996, -0.267212659121, -0.597942411900, -0.161498650908, -0.390260726213, -0.394643634558, -0.121204219759, 0.293107867241, -0.454255938530, 0.295598328114, -0.156355574727, -0.545071899891, -0.090008363128, 0.183461338282, -0.457385003567, 0.252881199121, -0.239663913846, 0.160894602537, -0.104999735951, 0.348640054464, 0.217821285129, 0.384905099869, -0.355948656797, -0.401762276888, -0.164737626910, 0.201453253627, 0.036371942610, 0.357683211565, 0.097105562687, 0.335154265165, -0.025938024744, -0.177726536989, -0.124954238534, 0.375655204058, -0.131182879210, 0.172742828727, -0.107492454350, 0.227592423558, 0.064163990319, 0.283586263657, 0.431419670582, 0.046677574515, 0.475751906633, 0.180332645774, 0.260869860649, 0.251334488392, 0.163852125406, -0.010892327875, -0.027673952281, 0.292219400406, 0.067512169480, 0.203492477536, 0.200123861432, 0.264120906591, 0.133093744516, -0.081627503037, -0.068022824824, 0.280346781015, 0.018238382414, -0.177060425282, -0.167665585876, 0.027410905808, 0.208916634321, 0.003961181734, 0.154013305902, -0.076593525708, -0.117481894791, 0.267030984163, -0.369385659695, 0.306416094303, -0.068713858724, 0.377572208643, 0.281427383423, -0.092004962265, -0.187742173672, -0.373269557953, -0.498432397842, -0.206176668406, 0.485907346010, -0.234445035458, -0.397928982973, 0.067093998194, -0.654142737389, -0.131363227963, -0.404098123312, -0.158834874630, 0.393214136362, -0.114854432642, 0.203909799457, 0.039160933346, 0.122159786522, 0.134415060282, -0.213607877493, -0.080405667424, 0.053086582571, 0.255384713411, 0.057875309139, -0.432767242193, -0.162432238460, 0.271894276142, -0.266268849373, 0.313763469458, 0.308542639017, 0.033517096192, -0.389101922512, -0.304707854986, -0.509190440178, -0.287561535835, 0.180707380176, 0.071598120034, 0.312458693981, 0.176693171263, -0.098339110613, -0.005375799257, -0.596214711666, 0.140076369047, -0.109394840896, 0.419643908739, 0.125943988562, 0.070532642305, -0.047905080020, -0.005395863671, -0.141972020268, 0.064674638212, -0.078172490001, -0.048682153225, 0.093414641917, 0.070418193936, -0.092608384788, -0.078396745026, -0.355373471975, 0.012207320891, 0.027887787670, 0.110155627131, 0.044476937503, 0.017020672560, -0.180272176862, 0.057942096144, -0.432322710752, 0.303606152534, -0.457917809486, 0.006369655486, -0.011243862100, 0.386726617813, -0.152848213911, -0.079574197531, -0.655752897263, 0.690079212189, -0.269670516253, 0.476747661829, -0.340490221977, -0.256879955530, 0.044120252132, 0.246891140938, 0.112969450653, 0.057588718832, -0.491789937019, -0.104583479464, 0.278614819050, 0.027499526739, -0.023342410102, 0.315460324287, 0.155190259218, 0.421916842461, 0.211287841201, -0.401902019978, -0.188209325075, -0.015091275796, -0.199129208922, 0.071086943150, -0.361458003521, 0.174929678440, 0.452926903963, -0.041496362537, -0.093678101897, 0.102141425014, -0.090375468135, -0.271178454161, 0.169057205319, -0.255826473236, 0.320402681828, -0.437268912792, -0.075867071748, 0.183864310384, 0.105128057301, -0.021428041160, -0.002183049452, -0.039869952947, -0.042113102973, -0.146616235375, -0.101822547615, 0.000680499477, 0.089324608445, 0.032748162746, 0.181349635124, 0.441494584084, -0.003054855159, 0.388302057981, -0.070733971894, -0.060451891273, -0.026124900207, -0.149396941066, 0.026993226260, -0.084492594004, 0.087409988046, -0.556368649006, -0.063489779830, 0.204828828573, -0.343092054129, -0.187571525574, -0.144700706005, -0.824330985546, -0.618491709232, -0.188458681107, -0.144245803356, -0.182110771537, 0.307065874338, 0.031679242849, -0.836175620556, -0.368660181761, -0.026456397027, -0.167563155293, 0.002655847929, 0.150181204081, -0.082740567625, -0.135639637709, -0.630872964859, 0.031304616481, 0.162133410573, -0.122925460339, -0.374055176973, 0.711687445641, -0.004697959404, -0.141599088907, 0.238907843828, 0.070338122547, 0.303771972656, -0.142606467009, 0.289401471615, 0.439546138048, -0.171408042312, -0.115337327123, 0.017312170938, 0.001863100217, -0.287250697613, -0.022581322119, -0.178635612130, -0.314224451780, 0.298250913620, 0.237322360277, -0.038344152272, -0.259273499250, 0.009552882984, 0.103754371405, -0.634287834167, 0.258169591427, -0.408120304346, 0.161305367947, -0.481729149818, -0.052719220519, 0.201193973422, 0.108362779021, 0.149547830224, 0.501241564751, -0.246728882194, -0.284840255976, -0.068035468459, -0.063094429672, 0.431015193462, 0.243707239628, -0.118209667504, 0.148469954729, 0.073902189732, -0.393306314945, 0.266017913818, -0.454553484917, 0.444273263216, 0.011700650677, -0.085456594825, 0.412196069956, 0.260805904865, -0.544543981552, -0.116832762957, -0.273087799549, 0.103661023080, 0.189178213477, -0.263715535402, -0.149577081203, -0.573323309422, 0.227062955499, -0.102635078132, 0.313582122326, 0.051043957472, 0.327451109886, 0.096857666969, -0.492555916309, -0.404924452305, -0.130442857742, -1.044715166092, 0.176097109914, 0.117018915713, -0.064922593534, 0.057458676398, 0.092347756028, 0.061740618199, -0.493573188782, -0.300035953522, -0.048644747585, 0.062873378396, -0.045349568129, -0.163112655282, 0.194787010550, 0.014418859035, 0.094656281173, -0.209988787770, 0.035607613623, 0.003896889742, 0.188256263733, -0.088542319834, 0.443584442139, 0.100179135799, 0.096276640892, 0.022993883118, 0.067944526672, -0.001768056303, 0.196012914181, 0.130000859499, 0.057844720781, 0.047930058092, 0.247742787004, 0.135922893882, -0.047522813082, -0.141923353076, 0.088658586144, -0.251814633608, 0.242508307099, 0.832521975040, -0.227377638221, -0.389811277390, -0.106950402260, 0.000865300419, 0.198573485017, -0.062546923757, -0.288850903511, -0.066541813314, 0.352884232998, 0.509288609028, -0.301063179970, -0.533133149147, 0.182656511664, 0.355508357286, 0.649526894093, -0.308503001928, -0.259220808744, 0.312845408916, 0.291118085384, 0.866023302078, -0.270369261503, 0.312134236097, 0.076803646982, -0.428118944168, -0.160776749253, -0.105801790953, -0.184071168303, -0.161637544632, -0.075082637370, 0.260975033045, 0.030085312203, -0.115154981613, 0.056570876390, -0.099455721676, -0.522061228752, -0.014854004607, -0.008702986874, 0.150142565370, 0.274390399456, -0.230925589800, -0.005726078060, 0.183015719056, -0.086993731558, 0.006268273573, 0.014458174817, 0.322275251150, 0.122038617730, 0.494618058205, 0.309381783009, -0.225633352995, 0.075091034174, -0.637920796871, -0.084016866982, 0.478154629469, 0.418803513050, 0.295778900385, -0.316015452147, 0.611180007458, -0.098088853061, 0.239145964384, 0.270400047302, 0.696680247784, 0.245185449719, -0.027901710942, -0.331201851368, 0.032777238637, 0.407313436270, -0.237446367741, 0.531040847301, -0.649525046349, -0.195840358734, 0.038864370435, 0.094843208790, 0.502855718136, -0.153832867742, -0.450828671455, -0.127059161663, 0.160175964236, -0.204424053431, -0.429757058620, 0.461109936237, 0.117073453963, 0.549462914467, 0.235634654760, 0.107764475048, -0.038507029414, -0.460951834917, -0.294168591499, -0.139033079147, -0.015307655558, -0.117903999984, 0.223860546947, -0.163302436471, -0.491950064898, -0.214093968272, -0.358463138342, -0.071067385375, -0.483476161957, 1.038028359413, 0.184738472104, -0.379325211048, 0.025341086090, -0.305237740278, -0.139852285385, 0.209007754922, -0.660620152950, 0.161903694272, -0.088079199195, -0.360319972038, -0.036390412599, -0.238855749369, 0.417502135038, -0.191991642118, 0.016097387299, -0.230740562081, -0.248976066709, -0.153901785612, -0.475583136082, 0.005158219021, -0.209504559636, -0.018655665219, 0.197833508253, -0.073544137180, 0.050653040409, 0.037604786456, -0.209525868297, -0.095350131392, 0.216926500201, 0.201432958245, 0.520286262035, 0.077602244914, -0.403022348881, -0.067579843104, 0.133374541998, -0.262057840824, -0.155484884977, 0.255319774151, 0.067057631910, 0.027136353776, 0.097349345684, 0.319851011038, 0.645300567150, -0.568793892860, -0.676549077034, -0.251646220684, -0.473359912634, 0.180386617780, 0.196525454521, -0.072547733784, -0.395938068628, 0.248250186443, 0.075959853828, 0.263095200062, -0.558733522892, -0.128101572394, 0.098039790988, -0.591068267822, 0.131866052747, -0.106298625469, 0.008538613096, 0.043065693229, -0.168509632349, 0.046313494444, -0.091098755598, 0.108801074326, 0.359583199024, -0.046507377177, -0.239591509104, 0.184860184789, -0.541581749916, 0.138573974371, 0.306365400553, 0.015118313953, 0.176031902432, -0.887311935425, -0.621059477329, -0.035020053387, 0.562190532684, 0.084066353738, 0.266331136227, -0.236582115293, -0.795549690723, -0.596735835075, 0.076830983162, -0.497555822134, 0.422972470522, -0.190754711628, 0.292918860912, -0.467604130507, -0.284875541925, -0.294347018003, -0.335388988256, -0.362187355757, 0.067428909242, 0.149170249701, -0.213637962937, -0.033403683454, 0.547783315182, 0.030637398362, -0.201080128551, 0.375193059444, 0.276809662580, 0.001777372905, -0.280254244804, -0.038357604295, -0.109359234571, -0.004524778109, -0.434792846441, -0.319447278976, -0.385458886623, 0.074983209372, -0.487905889750, 0.052684824914, -0.268743842840, 0.346489220858, -0.005533254705, -0.061753116548, 0.097297035158, 0.041872452945, -0.665852665901, -0.036310955882, 0.339536041021, -0.023981343955, 0.155274704099, 0.045320685953, 0.249664977193, -0.013540607877, 0.291534662247, -0.570238649845, 0.079195857048, -0.054388605058, -0.273988574743, 0.109559290111, -0.490926295519, 0.167418435216, 0.009974986315, 0.148411095142, -0.429952025414, -0.080108888447, 0.251028329134, -0.178992718458, 0.002506530844, 0.258966505527, -0.260504692793, -0.604682445526, -0.089210234582, 0.379285007715, -0.156352251768, 0.017004162073, -0.342001229525, 0.208278819919, -0.226713761687, -0.252015650272, -0.103061057627, -0.282028973103, -0.188366845250, 0.230294093490, 0.066494762897, -0.350429266691, -0.277521491051, -0.371131509542, 0.454619944096, 0.151560619473, -0.125519558787, 0.393525153399, -0.701598882675, 0.589370250702, -0.616024672985, 0.332377374172, 0.234483510256, 0.291782140732, 0.222189456224, 0.162395402789, 0.113953135908, 0.474859207869, 0.267862111330, 0.083532832563, -0.195583418012, -0.863854587078, -0.116692043841, -0.353954851627, -0.140937536955, 0.144197434187, 0.100106038153, 0.301344007254, -0.004445956554, 0.412818372250, -0.062085047364, 0.129517987370, -0.098820105195, 0.037688430399, -0.362648636103, 0.270770192146, 0.098472021520, 0.072753600776, -0.060632217675, 0.041508629918, -0.265676498413, -0.441374421120, -0.283918470144, -0.046772725880, 0.073418013752, 0.065431095660, -0.234071478248, -0.267218977213, -0.324923008680, 0.249143168330, 0.116783313453, 0.222564429045, 0.131378069520, 0.132393404841, -0.210012987256, -0.070310339332, -0.220398589969, 0.030013279989, 0.426681727171, 0.079642280936, 0.538735866547, -0.168909534812, -0.502799391747, -0.334070682526, -0.197393760085, 0.266591548920, 0.295587748289, -0.132107481360, -0.141095146537, -0.509890913963, -0.471665114164, -0.204770117998, -0.353189289570, 0.296760767698, -0.129039466381, -0.358993649483, -1.098341822624, -0.015777455643, -0.336337298155, -0.104503914714, -0.977098405361, -0.061466142535, 0.213437885046, 0.204177334905, -0.927336990833, 0.211191341281, -0.589922726154, -0.744785368443, 0.368408441544, 0.104018725455, 0.168863296509, 0.167805075645, -0.182349607348, -0.404673784971, -0.177284389734, 0.292193830013, 0.151489660144, -0.325035929680, 0.285352766514, 0.043757788837, -0.211446896195, 0.162355735898, 0.072755843401, 0.333354890347, -0.342410713434, -0.041287537664, 0.179255634546, 0.187195688486, -0.299486577511, 0.341903001070, 0.166700318456, -0.119737952948, 0.170479923487, -0.082640886307, 0.261662960052, 0.380740880966, -0.227914988995, -0.055260606110, 0.266358107328, -0.045546196401, 0.351560115814, 0.372935056686, 