-0.001438676962, -0.783878982067, -0.260523110628, -1.366834640503, -0.239732623100, -0.624738216400, -0.124568797648, -0.672655940056, 0.424601256847, 0.262956738472, 0.591205835342, 0.428896963596, -0.614606380463, 0.015230066143, 0.540390133858, -0.314698785543, -0.113851003349, -0.587486565113, 0.160071641207, 0.054173894227, 0.337155938148, -0.640876054764, -0.144226267934, -0.066220641136, 0.264626383781, -0.641499817371, 0.200423702598, -0.340873926878, -0.214628890157, 0.074532292783, -0.641349613667, -0.021104423329, 0.336515069008, 0.039769288152, 0.827862381935, -0.118654660881, 0.174281492829, -0.202061995864, -0.029718674719, -0.326194286346, -0.418023973703, 0.239478662610, -0.121917262673, -0.023958707228, 0.222962394357, 0.212451279163, 0.097173653543, 0.017490437254, -0.100646048784, -0.167604401708, -0.449146240950, -0.687529206276, -0.307017207146, -0.126746386290, -0.101621732116, -0.416141450405, -0.002813667292, -0.199057936668, -0.326101750135, -0.760309338570, 0.251939594746, -0.073917001486, -1.392560839653, -1.853824377060, 0.301579505205, -0.300443381071, 0.115337371826, -0.133505448699, -0.589345395565, -0.299173861742, 0.294460773468, -0.674049496651, -0.244032561779, -0.264750570059, -1.921543598175, 0.080182299018, -0.382438004017, 0.383061587811, -0.187507703900, -0.171083346009, 0.053961794823, -0.120746940374, 0.290921121836, 0.171337604523, 0.718831956387, 0.107815071940, -0.437270551920, 0.227049216628, 0.704429090023, -0.662221670151, -0.068895190954, 0.020256713033, 0.002205857309, -0.084216132760, 0.043672189116, -0.056898687035, 0.044204700738, 0.054642003030, -0.406707704067, 0.250421404839, 0.035955861211, -0.044875014573, -0.774019777775, 0.130503341556, 0.249413728714, -0.122547827661, 0.543673515320, -0.198870748281, -0.094485193491, -0.096458211541, -0.206352666020, -0.662197113037, -0.474260061979, 0.261129140854, 0.127596065402, 0.036697864532, 0.242456868291, 0.417989075184, -0.365128308535, 0.508881449699, -0.440458834171, -0.011332167313, -0.007679302245, -0.205601736903, -0.365419328213, 0.556151509285, -0.339651912451, 0.527107596397, 0.379571467638, -0.439583390951, 0.745226681232, -0.144882246852, 0.119352921844, -0.981577992439, 0.108774945140, 0.448044955730, 0.029937636107, 0.405593246222, -0.092174641788, -0.259818077087, 0.513388991356, 0.211248576641, 0.180503696203, -0.204438701272, 0.224527359009, 0.013224801049, -0.047457229346, -0.004921872634, -0.435261666775, -0.216706827283, 0.214812710881, -0.272227197886, 0.237117484212, -0.507730305195, -0.251168221235, -0.731763958931, 0.595301330090, -0.001420691959, -1.199991941452, -1.223647594452, -0.853188097477, 0.188056722283, -0.131387963891, -0.497585207224, -0.134331777692, -0.166151463985, -0.267343878746, -0.572391033173, 0.037553478032, -0.040551785380, -0.054943460971, 0.304140120745, -0.340457499027, 0.156535446644, 0.072330281138, -0.491185873747, 0.016461949795, 0.278401017189, -0.065521880984, -0.487940102816, -0.292624920607, 0.324203968048, 0.189680203795, -0.450792580843, 0.520376980305, -0.210528135300, 0.138346701860, 0.396162599325, 0.377295821905, -0.800928771496, 0.198741331697, -0.674707055092, 0.691460371017, -0.019889265299, 0.211986243725, -0.192251354456, -0.088354788721, -0.138540804386, 0.289253056049, 0.971529364586, 0.040331233293, 0.057695060968, -0.359259068966, -0.647262930870, 0.143590301275, -0.395342886448, 0.152966082096, 0.278407365084, 0.466098517179, -0.631802678108, 0.275352716446, 0.359972625971, -0.182678028941, -0.247600108385, -0.488997757435, -0.399087518454, -0.221201092005, 0.090422883630, -0.408166199923, -0.149816647172, 0.038671221584, 0.300366193056, -0.079028353095, 0.197344511747, 0.293991684914, -0.672366321087, 0.077701494098, 0.435807704926, -0.169724524021, -0.055136088282, -0.180608630180, -1.189859747887, -0.450298666954, -0.273045808077, 0.486507356167, 0.083317942917, -0.789390146732, -0.237878441811, 0.089003607631, -0.684366405010, -1.158664703369, -0.453985393047, 0.133269146085, -0.125050649047, -0.526919901371, 0.221782252192, -0.391975224018, 0.125602215528, 0.783272027969, 0.309659451246, -0.522178411484, -0.175790935755, -0.014197649434, 0.279194205999, -0.080960199237, 0.375805020332, -0.152049526572, 0.241373956203, -0.337959498167, -0.533127069473, 0.443426430225, 0.097928725183, -0.233576804399, -0.629733860493, 0.389582872391, -0.418167889118, 0.177406534553, 0.215764433146, 0.697556614876, 0.181842103601, 0.163101553917, 0.675342261791, 0.523371696472, -0.214203283191, -0.735819995403, 0.281891822815, 0.254870861769, 0.515581905842, 0.029146187007, -0.012636988424, -0.191024035215, -0.412998378277, 0.604528844357, -0.153998881578, 0.259034812450, -0.593767583370, -0.246101796627, 0.210455492139, -0.220749214292, 0.028671219945, -0.826959908009, 0.163954466581, -0.461620092392, -0.068959400058, -0.845183670521, -0.257912158966, -0.696043729782, -0.713829457760, 0.469525128603, 0.130923449993, 0.146392270923, 0.051335014403, 0.366063356400, -1.036736965179, -0.302857577801, 0.187835887074, -0.264739960432, -0.283330827951, 0.063742019236, 0.211631581187, -0.304331064224, 0.387432128191, 0.106665112078, 0.043113674968, -0.578983664513, 0.233331263065, 0.026601422578, -0.350563675165, 0.143742173910, 0.016237569973, 0.864330768585, -0.441374570131, -0.023318633437, -0.231777161360, 0.673184394836, 0.585931122303, -0.988980352879, 0.776956439018, -0.283199191093, 0.087607972324, 0.090059831738, 0.152561426163, 0.467379450798, -0.081997223198, -0.104238986969, -0.299073636532, -0.210753560066, 0.069946974516, 0.304242014885, -0.007831255905, -0.965190649033, -1.518805623055, -0.809848129749, -0.145668536425, 0.665137648582, -0.332299441099, -0.891024231911, -0.242286339402, -0.023450853303, -0.287680536509, -0.450393706560, -0.754045784473, -0.153589591384, -0.079335190356, -0.189173415303, 0.117694310844, -0.000498716661, -0.084826596081, 0.451569765806, -0.479080200195, 0.196809962392, -0.136480152607, 0.526158630848, -0.741395890713, 0.079523101449, 0.286238312721, 0.201563581824, 0.330832511187, 0.256872653961, -0.144270479679, 0.374196231365, 0.516187310219, 0.101874053478, 0.678746581078, 0.006787100807, -0.295534253120, 0.592502772808, -0.038489688188, -0.044527567923, -0.018882991746, -0.007756994106, 0.083523496985, 0.515683650970, 0.330752879381, -0.426988393068, -0.289653182030, 0.885863900185, 0.138007387519, -0.011351534165, 0.420528203249, -0.489305615425, -0.053443182260, -1.016811966896, 0.763633608818, -0.308516561985, -0.734703302383, -0.183182433248, -0.725566387177, -0.436505794525, -0.705821454525, -0.094690904021, -0.743233442307, 0.425540208817, -0.706675231457, -0.422361850739, -0.540185630322, 0.038177885115, -0.302621126175, -0.083164773881, -0.710688352585, -0.549001336098, -0.941607475281, 0.015584233217, 0.053621243685, -0.698094964027, 1.864123344421, 0.133068248630, 0.420206606388, -0.263248682022, -0.340101957321, 0.349286705256, 0.347239792347, 0.347108095884, 0.046411711723, 0.030422100797, -0.081303343177, 0.104502536356, 0.055448256433, -0.359370023012, -0.270074635744, -0.567956268787, 0.248274028301, -0.407894492149, 0.458290934563, -0.237253859639, 0.067718625069, -0.455565184355, -0.466218769550, 0.264765948057, 0.553914546967, -0.062891133130, 0.309073954821, 0.142418697476, -0.707152485847, -0.300034433603, 0.698868215084, -0.515341758728, -0.327079176903, 0.364465057850, -0.037643197924, 0.111932374537, 0.467132955790, -0.026033369824, 0.589205205441, -1.046230077744, -0.774552285671, 0.113811090589, 0.275253206491, 0.345768660307, 0.286208271980, -0.106622211635, 0.171606495976, 0.656977832317, -0.758210182190, -0.097542807460, -0.450122892857, -0.146554648876, -0.343410909176, -0.023562468588, 0.852638959885, -0.314333856106, 0.152465656400, 0.259084999561, -0.165155574679, 0.635456323624, 0.140714704990, 0.093782626092, 0.275897920132, 0.080308049917, 0.050349928439, -0.243624731898, -0.186457559466, 0.289704293013, -0.270186811686, 0.443245261908, -0.145396202803, -0.161221712828, -0.141981169581, 0.275862842798, -0.224805623293, -0.350085198879, -0.228018119931, 0.348686516285, -0.074861556292, -0.470741212368, 0.491689473391, -0.125703260303, 0.272929430008, -0.606652081013, 0.350757002831, -0.517345726490, -0.430226445198, 0.054736092687, -0.366009801626, 1.035225391388, -0.152815446258, 0.048363983631, 0.339778453112, -0.019741460681, -0.755214452744, -0.269086062908, -0.915159702301, -0.267595052719, -0.090742275119, -0.558169662952, 0.179255872965, -0.601232588291, -0.753571987152, 0.405112206936, 0.065305262804, -0.340682208538, -0.617054045200, 0.087945543230, 0.434769690037, -0.204206988215, 0.024292990565, 0.391527384520, 0.112665452063, 0.451989173889, -0.282497465611, 0.377814203501, -0.128084287047, 0.157641023397, -0.517535865307, -0.268110871315, -0.571306645870, 0.541474819183, 0.556488156319, -0.488779842854, 0.463965445757, -0.004002332687, -0.716963887215, 0.367922961712, -0.621962785721, -0.263167560101, 0.286210685968, 0.187233060598, -0.291432976723, -0.600263595581, -0.382144510746, -0.279702067375, 0.202550411224, -0.041373174638, -0.107667975128, 0.195518538356, 0.183653637767, -0.128844976425, 0.299078077078, 0.405171751976, -0.315152615309, -0.393036425114, 0.414448976517, 0.061369698495, -0.160846233368, 0.074049383402, 0.024800872430, 0.129701465368, -0.017390873283, -0.485430598259, 0.140840739012, -0.327772647142, 0.493645161390, 0.407506138086, -0.905655264854, 0.196127742529, -0.346422731876, 0.770219802856, -0.164294525981, 0.066589944065, 0.501006662846, -0.297974169254, 0.431498110294, -0.595812797546, -0.084794737399, -0.229445964098, -0.400065749884, 0.621407210827, -0.025201037526, 0.212542429566, -0.541743934155, -0.221312627196, -0.328925251961, 0.501851439476, -0.391518354416, -0.050324376673, 0.016124311835, 0.369025766850, 0.144161298871, -0.240583285689, 0.524138987064, -0.275936365128, -0.322172135115, 0.450957119465, 0.370205610991, -0.139697968960, 0.125755563378, -0.577144801617, -0.226454436779, -0.234147503972, -0.160379126668, -0.754711270332, 0.970634937286, 0.151766717434, -0.826188385487, 0.114438191056, -0.975252866745, 0.186509758234, 1.062595129013, 0.089682035148, 0.219360753894, 0.058115947992, 0.107798352838, -0.463285714388, 0.028042601421, -0.304028958082, -0.282485902309, 0.201585203409, 1.012281298637, 0.207404851913, 0.846477627754, -0.189471483231, 0.118727222085, 0.283765822649, -1.034884929657, -0.276093959808, 0.076085060835, -1.945162296295, -0.305885702372, 0.347588807344, 1.105969548225, -0.053678195924, 0.054213482887, -0.194280624390, 0.189892202616, -0.468328446150, -0.418064862490, 0.152068138123, 0.194401219487, -0.349301367998, 0.272091507912, -0.200901851058, -0.372602581978, -0.465945720673, 0.207454741001, 0.216591432691, 0.162031695247, -0.204121857882, -0.242844238877, -0.311732828617, 0.599234819412, 0.027940895408, 0.714073717594, 0.119482278824, 0.206565245986, 0.916873037815, -0.027886385098, 0.118094265461, -0.141507938504, -0.044906340539, -1.258245587349, 0.133032828569, -0.201368793845, -0.479736626148, -0.257535248995, -0.164897963405, 0.913550853729, -0.592153429985, 0.146184667945, 0.132687076926, 0.196505457163, 0.121172331274, -0.410297870636, -1.360466003418, -0.184181749821, -0.428784787655, 0.499308764935, 0.318817377090, 0.005510194693, -0.276116460562, 0.197136193514, 0.840312063694, 0.227383062243, -0.142198070884, 0.537821948528, 0.034888405353, -0.047918669879, 0.109756872058, 0.478811770678, 0.108081437647, 0.245383411646, 0.126121193171, -0.210338652134, -0.497791498899, 0.036278475076, 0.408282637596, -0.438378632069, 0.033472228795, 0.137487098575, 0.413820296526, 0.294548571110, -0.157110318542, 0.395988464355, -0.222931072116, -0.050319120288, -0.140976220369, -0.105875767767, 0.270076692104, -0.283694326878, -0.560829281807, 0.326172292233, -0.183347061276, 0.537704408169, 0.389214456081, -0.009723419324, -0.712949275970, -0.787383258343, -0.281079202890, 0.527136385441, 0.157251104712, -0.016022484750, -0.475374609232, -0.555854916573, 0.379346638918, 0.704419255257, -0.328927934170, -0.097140274942, -0.129083111882, -0.302475601435, -0.275253266096, 0.390460729599, -0.002746423241, -0.317282944918, -0.352683693171, 0.405455768108, -0.348315685987, -0.297480344772, 0.322956800461, -0.151301145554, 0.194057688117, -0.349549084902, 0.156769394875, -0.892853796482, -0.379890918732, 0.422045409679, -0.121535860002, 0.220967456698, -0.833175957203, -0.049694750458, -0.444991886616, -0.410638719797, -0.338299065828, 0.147287815809, -0.588251471519, 0.301119655371, -0.209526479244, -0.165131255984, 0.204550519586, 0.111302599311, 0.232313632965, -0.518033146858, 0.528773188591, -0.448240935802, 0.457768619061, 0.512173831463, -0.689023971558, -0.083186857402, 0.668151319027, 0.381512731314, -0.459952980280, 0.387117594481, 0.112215653062, 0.090744338930, 0.024913372472, 0.344852477312, 0.256785988808, -0.508412897587, -0.207306116819, 0.261041611433, 0.416687518358, -0.438027530909, -0.386536628008, -0.046587925404, -0.582922816277, 0.056409940124, 0.088888294995, -0.198037520051, -0.206622675061, -0.087469570339, 0.008112551644, 0.066321052611, 0.108488209546, 0.382826924324, -0.053304027766, -0.362218052149, 0.274992585182, 0.310201853514, -0.053538870066, -0.199129030108, 0.252626478672, -0.000338327285, -0.619299650192, 0.198300689459, -0.230897098780, -0.473317772150, -0.720435082912, -0.446369141340, 0.417020469904, 0.339599519968, -0.334751784801, -0.129139810801, -0.848428308964, -0.221993237734, 0.117708101869, -0.982300162315, 0.284277439117, -0.035468332469, 0.013803309761, -0.141820833087, -0.448667287827, -0.246576264501, -0.217238172889, -0.654283821583, 0.307583183050, -0.265624642372, 0.077222429216, -0.372691422701, 0.292056411505, -0.875622868538, 0.058642391115, -1.186565756798, 0.303138077259, -0.305779010057, 0.681616902351, 0.438204884529, 0.153692543507, -0.100958928466, 0.184885427356, -0.099327281117, 0.228622436523, -0.330707699060, 0.194585517049, 0.278773456812, 0.291489094496, 0.427561461926, -0.062962286174, 0.177854627371, 0.432693541050, 0.380582690239, 0.411984056234, -0.564824104309, -0.309857755899, 0.051803130656, 0.056453000754, 0.270532190800, 0.231066077948, -0.308788567781, 0.252720326185, 0.260641247034, -0.370588779449, 0.272824048996, 0.171249404550, 0.300561904907, -0.438978165388, 0.171913892031, 0.295334756374, 0.201885059476, -0.507814645767, 0.165691360831, -0.695304036140, 0.068052105606, -0.055096499622, 0.158914089203, -0.083254359663, -0.508638679981, 0.293401449919, -0.329617857933, -0.440751910210, -0.757996976376, -0.265650182962, 0.246424600482, -0.376379221678, -0.809424221516, 1.864032864571, -0.178496643901, -0.025386242196, 0.995002746582, 0.540128767490, 0.458855062723, -0.175773128867, 0.233013853431, 0.316819518805, 0.205469429493, -0.304333090782, 0.175263941288, 0.003595763817, 0.028015654534, 0.175158977509, -0.701584994793, -0.033249840140, -0.262211114168, -0.404631614685, -0.014865309931, 0.067806199193, 0.530663490295, -0.321919351816, 0.482952654362, -0.304586261511, 0.239189460874, -0.107506781816, -0.310438305140, -1.007389903069, 0.149137154222, 0.284991234541, 0.186573445797, 0.105705529451, -0.437949776649, -0.466301172972, -0.678295254707, 0.111387662590, -0.280542522669, 0.562802135944, -0.014365366660, 0.318519681692, 0.116945289075, 0.066670030355, -0.124025933444, -0.626332879066, 0.225766882300, 0.057719603181, -0.113045632839, -0.088376104832, -0.683999121189, 0.109386250377, -0.161943852901, -0.246740609407, 0.063027746975, -0.513873875141, -0.392650097609, -1.215680956841, 0.857184529305, -0.121208310127, 0.134316399693, -0.628336191177, 0.035418245941, -0.744519710541, -0.627733290195, 0.111239545047, -0.060399431735, -0.986916661263, -1.130070805550, 0.153814464808, 0.142425730824, -0.259959459305, -0.702199637890, -0.296418190002, 0.254277944565, 0.711782395840, -0.352612823248, -0.093975074589, 0.044238697737, 0.200758397579, 0.667115807533, 0.025932684541, 0.133643031120, -0.023262940347, -0.108598306775, 0.902652263641, -0.404362261295, 0.325452417135, 0.067439511418, -0.432383060455, 0.068526245654, 0.310639590025, 0.354121625423, 0.326010584831, -0.377884626389, -0.506761968136, 0.136879295111, 0.432718962431, -1.631715297699, -0.281685054302, -1.477994322777, -0.060939021409, 0.321698039770, -1.162078142166, -0.016062237322, -0.022962810472, -0.133355289698, -0.317855000496, 0.174656957388, 0.539967894554, -0.058657132089, 0.005965366028, 0.007043358870, 0.305560380220, -0.365814357996, 0.028256438673, -0.337450504303, -0.283835560083, 0.565433859825, -0.348132431507, 0.248282700777, -0.369359910488, -0.036894328892, 0.363443136215, 0.074967227876, -0.379842400551, 0.030656142160, 0.274360835552, -0.211653396487, -0.011917339638, -0.198156028986, -0.039213929325, -0.090262249112, 